{"obs_dim": 40, "turn_scale": 0.7, "layers": [{"weight": [[0.5324162840843201, 0.10399238020181656, -0.08854888379573822, 0.1304185688495636, -0.19361235201358795, 0.22978025674819946, -0.27672210335731506, -0.05434313416481018, -0.5563921332359314, -0.18120093643665314, -0.1353924423456192, 0.17256253957748413, -0.10989589244127274, -0.22098983824253082, 0.2979962229728699, 0.062151722609996796, -0.0031600643415004015, -0.017072200775146484, 0.23387494683265686, -0.18034277856349945, -0.5287330746650696, 0.7274786233901978, -0.006858167238533497, 0.017795639112591743, 0.06636952608823776, -0.09259673207998276, -0.13039256632328033, 0.003986515570431948, 0.0037470522802323103, 0.1430617719888687, 0.051469240337610245, 0.33773329854011536, 0.3470006585121155, -0.2428305447101593, -0.2025807648897171, -0.020426632836461067, -0.11985526233911514, 0.29340317845344543, 0.13673698902130127, 0.1515732854604721], [-0.05645565316081047, -0.15220539271831512, -0.025242222473025322, 0.019958999007940292, -0.11948718130588531, -0.15577185153961182, -0.644371509552002, -0.4683815538883209, -1.082000970840454, -0.3885751962661743, 0.07168066501617432, 0.059653088450431824, -0.3235216736793518, -0.7889190912246704, 0.20825815200805664, -0.04009305685758591, 1.5086848735809326, -0.35051801800727844, -0.11988866329193115, -0.273070365190506, -0.045357320457696915, -0.6901214718818665, -0.7192554473876953, -0.5171123743057251, 0.1276053935289383, 0.07266144454479218, 0.04962536320090294, -0.127979576587677, -0.06376928836107254, 0.25544995069503784, -0.2451411485671997, -0.2990990877151489, -0.029168378561735153, -0.35606271028518677, -0.14339832961559296, 0.12031622976064682, -0.03047803044319153, -0.20240536332130432, -0.09623691439628601, 0.008682968094944954], [0.1064123660326004, 0.1163492426276207, -0.015284733846783638, 0.08567730337381363, 0.0004953265306539834, 0.10916824638843536, 0.43350762128829956, -0.05231814086437225, -0.21365775167942047, -0.07583881169557571, -0.13825973868370056, -0.3247050642967224, 0.5384496450424194, 0.3228331506252289, -0.03503048047423363, 0.25833526253700256, 0.0034604682587087154, 0.2533300518989563, 0.21338939666748047, -0.19261187314987183, 0.4239860773086548, -0.7393242716789246, 0.377763569355011, -0.024926945567131042, 0.11758251488208771, -0.11713346093893051, -0.05721629410982132, 0.14280720055103302, -0.007603049743920565, -0.05582475662231445, 0.1291171759366989, 0.015519998967647552, -0.034779708832502365, 0.37642917037010193, 0.04897605627775192, -0.060990676283836365, 0.07880904525518417, -0.22026288509368896, 0.038261447101831436, -0.10516588389873505], [0.32938238978385925, -0.0429333820939064, -0.10511893033981323, 0.10228150337934494, 0.13553486764431, 0.21945665776729584, 0.18269672989845276, -0.49660924077033997, 1.3818210363388062, 0.08421369642019272, 0.17033527791500092, 0.24827823042869568, 0.05877550318837166, -0.3497479259967804, -0.3275778591632843, -0.05492306128144264, 0.3133942484855652, -0.7753092646598816, -0.4307076334953308, -0.5476023554801941, 1.080816626548767, -0.40513357520103455, 0.139530211687088, 0.2933335602283478, -0.1413809061050415, 0.05065341293811798, -0.1617230921983719, -0.0678740069270134, -0.2320193350315094, -0.07926028966903687, -0.2577563226222992, 0.4398927688598633, 0.07022538781166077, 0.16058458387851715, -0.06352115422487259, -0.05539214611053467, 0.1162877082824707, 0.7435580492019653, -0.04257320612668991, -0.039400096982717514], [-0.7833305597305298, 0.14166194200515747, 0.1656707525253296, -0.051787231117486954, 0.35697126388549805, -0.39602386951446533, -0.14896762371063232, -0.07505226135253906, 0.10258304327726364, 0.1617647260427475, 0.19212473928928375, 0.31203487515449524, -0.15608344972133636, 0.07378251850605011, 0.15501044690608978, -0.16159676015377045, 1.407641053199768, 0.6904405951499939, 0.09369269758462906, 0.27612847089767456, -0.3190937936306, 2.0698866844177246, -0.20847222208976746, -0.48455721139907837, 0.008179896511137486, -0.11131848394870758, -0.06423787027597427, -0.04782703518867493, -0.08379137516021729, -0.016253739595413208, -0.2080071121454239, 0.1232064738869667, -0.0911787822842598, 0.027547162026166916, 0.2800382971763611, -0.1996624767780304, 0.09173642098903656, 0.22478105127811432, -0.011113066226243973, 0.17307163774967194], [0.22051380574703217, 0.09388364106416702, 0.03432150185108185, -0.05154457315802574, 0.3831252455711365, 0.18572083115577698, -0.6822229623794556, -0.3194011151790619, -0.2593318223953247, 0.1773659884929657, 0.05987156555056572, 0.22038047015666962, 0.09182640165090561, -0.21362413465976715, 0.12296599894762039, 0.0020743433851748705, 0.4645855128765106, -0.5718867778778076, -0.014383882284164429, 0.5075265765190125, 0.3129124343395233, -0.36021390557289124, 0.028688833117485046, 0.376516193151474, -0.14111730456352234, 0.15185792744159698, -0.03343391790986061, 0.08447403460741043, -0.011617379263043404, -0.054793037474155426, 0.06810243427753448, -0.12692652642726898, 0.05224965885281563, -0.10150538384914398, 0.07755448669195175, 0.0743953138589859, -0.12434825301170349, -0.10048267990350723, -0.013609794899821281, -0.07248004525899887], [-0.2834948003292084, 0.04550096392631531, 0.12762640416622162, 0.10320785641670227, -0.045703280717134476, -0.18846124410629272, -0.4492510259151459, -0.7799224257469177, 0.45272305607795715, 0.020801128819584846, 0.036333952099084854, -0.2892482578754425, -0.3682297468185425, -0.013941708952188492, -0.19461868703365326, -0.1471051424741745, 0.09233718365430832, 0.413829505443573, 0.048263244330883026, 0.23087337613105774, -0.0825425460934639, 0.11025796830654144, 0.17356687784194946, 0.7267721891403198, 0.13672806322574615, 0.03566787391901016, -0.022468693554401398, -0.31862717866897583, 0.13961535692214966, -0.43654510378837585, -0.11973747611045837, -0.4262840449810028, -0.22421427071094513, 0.04343660548329353, -0.04005905240774155, -0.280804842710495, -0.13624469935894012, 0.567330539226532, -0.0719456672668457, -0.019757211208343506], [0.05590995028614998, -0.07563099265098572, 0.13752982020378113, -0.1403525173664093, -0.14766615629196167, 0.17356990277767181, 0.3055766224861145, -0.5133846402168274, -0.21069107949733734, -0.058517150580883026, -0.004412302281707525, -0.015344742685556412, 0.6624941825866699, -0.3397349715232849, -0.6439230442047119, 0.16597193479537964, 0.5459641218185425, -0.6397612690925598, -0.5892471075057983, -0.1846359521150589, 0.14689861238002777, -0.344443142414093, -0.5181018710136414, 0.5238379240036011, -0.11060304939746857, 0.04262364283204079, -0.04037171229720116, 0.1770959347486496, 0.10708607733249664, -0.008445181883871555, 0.028364364057779312, 0.29704904556274414, 0.17613518238067627, -0.21926528215408325, -0.22154636681079865, 0.019495096057653427, -0.12400036305189133, 0.2927333414554596, -0.05973700433969498, -0.02698308229446411], [0.04565000906586647, 0.053264569491147995, -0.11763978749513626, 0.1267552375793457, 0.24486027657985687, -0.09093664586544037, -0.08925063163042068, -0.31482988595962524, -0.2786238491535187, 0.3940333127975464, 0.2526070177555084, 0.19308854639530182, -0.40810027718544006, 0.18689124286174774, 0.1599705070257187, 0.27137044072151184, 0.30022943019866943, 0.30699244141578674, -0.010720225051045418, -0.10084933042526245, 0.21147072315216064, -0.520828902721405, -0.24180704355239868, -0.38589829206466675, 0.017686907202005386, 0.04189114645123482, 0.0648907795548439, -0.12330339103937149, -0.07150144129991531, -0.15241315960884094, 0.18585795164108276, 0.2443791627883911, 0.3152656853199005, 0.0643201395869255, 0.08289985358715057, 0.22974933683872223, 0.01868417114019394, 0.3526672124862671, 0.13550326228141785, 0.04442509263753891], [0.3706476390361786, 0.06950242817401886, -0.14977653324604034, 0.07419229298830032, -0.16930794715881348, 0.1109955683350563, 0.1711304932832718, 0.46041274070739746, 0.5608879923820496, -0.12424102425575256, -0.11918281763792038, 0.049980103969573975, -0.13481919467449188, -0.18651141226291656, 0.012651422061026096, -0.24608896672725677, -0.6322304010391235, -0.01914159581065178, -0.12699341773986816, 0.35922971367836, -0.2783830463886261, 0.29462143778800964, 0.054925981909036636, -0.28670862317085266, 0.02914365939795971, 0.060448937118053436, -0.07542256265878677, -0.08463972806930542, 0.15183472633361816, -0.14165058732032776, -0.18192771077156067, -0.24952633678913116, 0.2231917679309845, -0.03783935680985451, 0.08065767586231232, 0.0696326494216919, 0.027784446254372597, -0.20143064856529236, -0.1535605639219284, 0.10186836123466492], [-0.23468072712421417, -0.12567001581192017, 0.2138877958059311, 0.14025551080703735, -0.30089667439460754, -0.005481742788106203, 0.5863997340202332, 0.4022999405860901, -0.7362446784973145, -0.1763007491827011, -0.2017395794391632, 0.49920105934143066, 0.3388502597808838, -0.8443613052368164, 0.6195492744445801, 0.8843160271644592, -0.4566960334777832, -1.4094864130020142, -0.1057700365781784, -0.6999518871307373, -0.9971480965614319, 0.48344722390174866, 0.7218602895736694, 0.32473522424697876, 0.060312021523714066, -0.003602748503908515, 0.3731149733066559, -0.3108587861061096, 0.002061615465208888, 0.21054048836231232, 0.1323392391204834, 0.04239172115921974, 0.11432349681854248, -0.40347525477409363, -0.25489258766174316, -0.0018153470009565353, 0.11293977499008179, -0.37398460507392883, -0.008368401788175106, -0.09132048487663269], [-0.2037428766489029, 0.07545144110918045, -0.0874398872256279, -0.10167386382818222, 0.021521613001823425, -0.2328357994556427, 0.08505424112081528, -0.2556588649749756, -0.2298479825258255, 0.17134791612625122, 0.016361894086003304, 0.1211748793721199, -0.23182648420333862, -0.26955103874206543, -0.4052937924861908, 0.44420549273490906, -0.33233821392059326, 0.22365252673625946, -0.21590860188007355, 0.28115254640579224, -0.2681121826171875, 0.42716914415359497, 0.33745864033699036, 0.3974587917327881, 0.10135946422815323, -0.13912057876586914, 0.10438457876443863, -0.03719276189804077, -0.041046105325222015, -0.11730040609836578, -0.0652012899518013, -0.38832026720046997, -0.207932710647583, 0.07524776458740234, -0.045385707169771194, 0.22379085421562195, -0.056179229170084, 0.010453932918608189, -0.10722829401493073, 0.020135903730988503], [-0.11352291703224182, 0.13272066414356232, 0.2075132578611374, -0.09505027532577515, 0.006925406865775585, -0.27623996138572693, 0.710682213306427, 0.12212318927049637, 0.6382308602333069, 0.159690722823143, 0.1421058624982834, 0.18320071697235107, 0.19496649503707886, -0.23858647048473358, -0.18039008975028992, 0.18220676481723785, 0.20407827198505402, 0.5491992831230164, -0.37252360582351685, -0.12563298642635345, -0.09953750669956207, -1.5587389469146729, 0.14289161562919617, -0.8027939796447754, 0.1168874129652977, -0.1358690708875656, -0.11193830519914627, 0.06826302409172058, -0.024502620100975037, 0.06711457669734955, -0.09022676199674606, -0.20355765521526337, -0.16668087244033813, -0.22868135571479797, -0.020326105877757072, 0.06429699063301086, 0.07404567301273346, -0.026610149070620537, 0.09569978713989258, 0.07175665348768234], [-0.090174600481987, -0.03415990620851517, 0.15430907905101776, 0.04346316307783127, 0.09460698813199997, -0.08489701896905899, -0.21612179279327393, -0.49715328216552734, -0.4792342483997345, 0.05564635619521141, -0.04498974233865738, -0.1770566999912262, 0.4039804935455322, -0.1901969611644745, 0.1915271282196045, -0.26786646246910095, 0.2948470115661621, 0.6245524883270264, -0.23474480211734772, -0.6055300235748291, -0.02203609235584736, 0.21766383945941925, 0.015249116346240044, 0.5915001630783081, -0.14739990234375, 0.1471596211194992, 0.022691635414958, -0.05718901380896568, 0.01570761203765869, -0.12891057133674622, -0.03259645774960518, -0.036268167197704315, -0.20075738430023193, 0.18093982338905334, 0.10158389061689377, -0.2546854615211487, 0.06999240070581436, 0.21192322671413422, 0.0271621011197567, 0.026739170774817467], [0.7842923402786255, -0.06598299741744995, -0.20473137497901917, 0.1141863614320755, 0.16666001081466675, 0.46924519538879395, 0.20450226962566376, -0.054445672780275345, 0.6737391352653503, 0.06947820633649826, 0.11746378988027573, 0.14485840499401093, -0.5424445271492004, -0.02464332990348339, -0.47628119587898254, 0.3017299473285675, -0.5208984613418579, -0.7017993330955505, -0.19454967975616455, 0.1732921302318573, 0.8741698861122131, 0.6233736276626587, 0.1619415581226349, 0.027910826727747917, -0.0853191390633583, -0.13011354207992554, 0.03534137085080147, 0.07011257857084274, -0.04892021417617798, 0.02201254293322563, -0.02854664996266365, -0.04135092720389366, 0.39811283349990845, 0.15070246160030365, 0.29547303915023804, 0.19293372333049774, -0.028276244178414345, -0.10662750899791718, 0.11980243027210236, 0.1549692153930664], [0.10810917615890503, 0.0517633892595768, -0.2654308080673218, -0.09697887301445007, -0.22378957271575928, -0.09777230024337769, -0.378356397151947, -0.7236660718917847, -0.224720761179924, 0.04014066979289055, -0.01792014017701149, -0.02252139337360859, -0.5968061685562134, -0.10144460946321487, 0.508957028388977, -0.1258840411901474, 0.13566811382770538, 0.1850452572107315, -0.00649835541844368, -0.002202338771894574, 0.4575556814670563, 0.5012584328651428, -0.04059750586748123, -0.3550407290458679, -0.10175340622663498, 0.07392396777868271, -0.01169335376471281, 0.21635767817497253, 0.021093403920531273, 0.161343514919281, 0.043457213789224625, -0.1945691704750061, 0.19518877565860748, 0.3333115875720978, -0.11975431442260742, -0.10005016624927521, -0.028018886223435402, 0.21079246699810028, 0.08931190520524979, -0.12941497564315796], [0.08031141757965088, -0.11567091941833496, -0.1483827531337738, 0.09043601900339127, -0.06540624797344208, -0.08414782583713531, -0.36134815216064453, -0.7130808234214783, -0.6883115172386169, 0.11712335050106049, -0.13350215554237366, -0.042401693761348724, -0.12579654157161713, 0.11342134326696396, 0.09924019128084183, -0.4167402982711792, 0.8768559694290161, 0.19535081088542938, -0.1849033385515213, 0.5041722655296326, 0.6821362972259521, 0.8670712113380432, -0.16547374427318573, -0.4523293673992157, 0.002980309771373868, -0.10048166662454605, -0.12223014235496521, 0.033632829785346985, 0.011811904609203339, -0.22044840455055237, 0.06335146725177765, -0.178281769156456, 0.2750556170940399, 0.15785972774028778, -0.03085438348352909, -0.0394306555390358, -0.10946210473775864, -0.2113323211669922, -0.07371363043785095, 0.02864167094230652], [0.6168544888496399, 0.07883892208337784, -0.39954477548599243, -0.004462152253836393, 0.13841469585895538, 0.231013685464859, 0.4247950315475464, 0.612282931804657, 0.22177347540855408, -0.25505322217941284, -0.10361586511135101, 0.2267448753118515, -0.1951620727777481, 0.13538937270641327, -0.21664969623088837, -0.7389583587646484, 0.38333192467689514, 0.10251670330762863, 0.21712826192378998, 0.06563304364681244, -0.4168204367160797, -0.09853818267583847, -0.9108153581619263, -0.8944632411003113, -0.09488746523857117, 0.14372293651103973, 0.0019781163427978754, -0.1708688884973526, 0.1512831449508667, 0.019780514761805534, -0.24536259472370148, -0.8593979477882385, 0.09331755340099335, 0.17385567724704742, 0.08279740810394287, 0.006000120658427477, 0.15323315560817719, 0.421114981174469, 0.029751867055892944, -0.02108573541045189], [0.44688934087753296, 0.09975923597812653, -0.09754356741905212, -0.07050357758998871, -0.019621731713414192, 0.5121809244155884, 0.3051062524318695, -0.033666569739580154, 0.2592337429523468, -0.4203300178050995, -0.2631937265396118, 0.2086188793182373, -0.052936457097530365, 0.03229440376162529, -0.17252159118652344, 0.1418551206588745, 0.40066492557525635, -0.2993322014808655, -0.09152238070964813, -0.4257577061653137, 1.2117520570755005, -0.3149229884147644, -0.1777549684047699, 0.43613365292549133, 0.09467413276433945, -0.03431779891252518, 0.04219815135002136, 0.04114164039492607, 0.0024287172127515078, -0.3840470016002655, 0.1965317726135254, -0.2229515016078949, 0.012555916793644428, -0.344623863697052, 0.16401968896389008, -0.212965190410614, 0.030097588896751404, -0.04700813442468643, 0.02693740651011467, -0.01342011895030737], [-0.2883712649345398, 0.04697014018893242, 0.14079758524894714, -0.08733750879764557, 0.29743364453315735, -0.18269459903240204, 0.29081839323043823, -0.15015830099582672, -0.6025333404541016, 0.07858819514513016, 0.0489039272069931, 0.04899116978049278, 0.5665121078491211, -0.23673377931118011, 0.35139498114585876, 0.6672960519790649, -0.7978365421295166, 0.2224421352148056, -0.5101173520088196, -0.15648044645786285, -0.784932017326355, 0.37737616896629333, 0.24185965955257416, -0.24896813929080963, -0.013224208727478981, 0.007608857937157154, -0.09173785150051117, -0.04625517502427101, 0.2820865511894226, -0.317219078540802, -0.07317265123128891, -0.29058051109313965, -0.34210914373397827, -0.12863056361675262, 0.06605545431375504, -0.029372358694672585, 0.08500393480062485, -0.18026548624038696, 0.09917869418859482, 0.05712606757879257], [0.32368016242980957, 0.13593626022338867, 0.09481032192707062, 0.046018436551094055, 0.12027455866336823, 0.3301185965538025, 0.10811315476894379, -0.18283860385417938, -0.7578182816505432, -0.21899878978729248, -0.9966551065444946, -0.24591028690338135, -0.18111072480678558, -0.7096379995346069, -0.2722785174846649, -0.5402030944824219, -0.09726136177778244, -0.6369591951370239, 0.10897346585988998, 0.1965019553899765, -0.08029923588037491, 0.4074721038341522, -0.9042216539382935, -0.18465080857276917, 0.11871329694986343, -0.12160417437553406, 0.2959693670272827, 0.10508594661951065, 0.13726095855236053, 0.12567725777626038, -0.6451207995414734, -0.16739466786384583, -0.33696478605270386, -0.8233954906463623, -0.20254425704479218, 0.24500678479671478, 0.15769760310649872, -0.6260046362876892, 0.06298655271530151, 0.3203955590724945], [-0.024664372205734253, 0.05797399953007698, -0.20478752255439758, -0.05306990072131157, -0.023241214454174042, -0.2236776500940323, -0.3217374086380005, 0.47159329056739807, 0.2767302691936493, -0.03912905976176262, 0.37554290890693665, -0.26108208298683167, -0.7121967077255249, -0.502672016620636, -0.7463350892066956, -0.70896315574646, 0.3600824773311615, -0.9766982197761536, 0.009235304780304432, 1.245873212814331, -0.30169233679771423, 0.25976866483688354, -0.02058916911482811, 1.4743086099624634, 0.08602988719940186, 0.06344588845968246, -0.16235142946243286, 0.05833842232823372, -0.2937484085559845, -0.0011440919479355216, 0.1845911145210266, 0.0506867878139019, -0.2529342770576477, -0.43571367859840393, 0.16012680530548096, 0.11290022730827332, -0.05705210939049721, 0.26863616704940796, -0.0068066976964473724, -0.01777566596865654], [-0.2712365984916687, 0.021595587953925133, 0.03531711548566818, -0.14951065182685852, -0.017374401912093163, -0.031219622120261192, 0.09892570227384567, 0.3309812545776367, 0.02655923366546631, 0.3151744604110718, 0.2582608759403229, -0.03481358289718628, 0.0034649570006877184, -0.22527751326560974, 0.11586330831050873, -0.020949680358171463, 0.6262248158454895, -0.8966272473335266, 0.01551224198192358, -0.47335541248321533, -0.20411042869091034, -0.021842241287231445, 0.17018146812915802, 0.8273668885231018, -0.0604487881064415, 0.15298470854759216, 0.1598452627658844, -0.03192700073122978, -0.0929570272564888, -0.03744487091898918, 0.01954610086977482, -0.02376721240580082, 0.005405043717473745, 0.20189213752746582, -0.12371286004781723, 0.17225417494773865, 0.11743969470262527, -0.34644997119903564, -0.07035985589027405, 0.11582564562559128], [-0.2039659470319748, -0.06030727177858353, -0.15867233276367188, 0.06168495491147041, -0.43629932403564453, -0.22477926313877106, 0.24626044929027557, -0.19264280796051025, 0.29033446311950684, -0.11404610425233841, 0.1190454438328743, -0.21911674737930298, -0.15941037237644196, 0.4796275496482849, -0.09338083118200302, -0.3042150139808655, 0.42076176404953003, 0.6696497797966003, 0.20859597623348236, -0.23884639143943787, -0.32279545068740845, 0.6055951714515686, -0.10947156697511673, 0.2885335683822632, -0.1321532279253006, -0.07379801571369171, -0.0929059088230133, 0.12773199379444122, -0.07685952633619308, -0.10114342719316483, -0.018606822937726974, -0.14959727227687836, -0.10368108004331589, -0.3618416488170624, 0.19105514883995056, 0.21278606355190277, -0.10377780348062515, 0.1985430270433426, -0.008710881695151329, -0.11377019435167313], [0.14509788155555725, -0.08529666811227798, -0.25225409865379333, -0.06172240898013115, -0.3121643662452698, 0.10493074357509613, -0.30674469470977783, 0.17029020190238953, 0.3696736991405487, -0.17276565730571747, -0.11729224026203156, -0.024386152625083923, -0.36900004744529724, -0.4431542456150055, 0.43439406156539917, 0.5089097619056702, 0.20878829061985016, -0.16251720488071442, -0.2998015582561493, -0.28906264901161194, 0.1898610144853592, 0.22768911719322205, 0.03510884940624237, -0.014875405468046665, 0.003840561956167221, -0.06495088338851929, -0.005210150498896837, 0.07219724357128143, -0.1867927461862564, 0.10135360807180405, 0.22406154870986938, 0.43003833293914795, 0.3535606861114502, -0.5167925357818604, 0.3902058005332947, 0.24982188642024994, -0.012008734978735447, -0.25438931584358215, -0.14872194826602936, -0.12888693809509277], [0.5763142704963684, 0.09593743085861206, -0.1534697711467743, 0.11358501762151718, -0.27646636962890625, 0.33194783329963684, -0.07974793016910553, 0.052624840289354324, 0.89057856798172, -0.24863865971565247, 0.27375510334968567, 0.2427249252796173, -0.05318097025156021, 0.09335336089134216, -0.20367872714996338, -0.11930827051401138, -0.3403242826461792, 0.11359948664903641, -0.2630833089351654, -0.7037320733070374, -1.6811802387237549, -1.2257548570632935, 0.037377241998910904, 0.0695897787809372, 0.03736342117190361, 0.005224259570240974, 0.08650733530521393, -0.015379323624074459, 0.004338948056101799, -0.1958407163619995, 0.12124161422252655, -0.18777824938297272, 0.11853767931461334, -0.098673976957798, 0.15108785033226013, 0.13574881851673126, 0.06194114685058594, 0.02329690381884575, -0.1362275928258896, -0.014407111331820488], [1.0783281326293945, 0.1474785953760147, 0.026412611827254295, -0.017249995842576027, -0.2184307873249054, 0.6319538354873657, -0.9227194786071777, -0.10802039504051208, 0.5518991947174072, -0.47453945875167847, -0.5221277475357056, -0.1686987727880478, -0.606092095375061, 0.8841325044631958, -0.06553915143013, 0.07718764990568161, -0.6103615760803223, -0.9276584982872009, -0.35471346974372864, -0.36302614212036133, 0.46038389205932617, 0.9925090670585632, 0.19652192294597626, 0.9838790893554688, 0.1374562829732895, -0.10710343718528748, -0.3753133714199066, 0.1266275942325592, -0.1829841583967209, 0.2350754290819168, -0.13311795890331268, -0.07012191414833069, -0.1032228097319603, -0.03989946469664574, -0.3173432946205139, 0.29635053873062134, -0.11863264441490173, -0.9829460978507996, -0.007401277776807547, 0.06625309586524963], [-0.19026370346546173, 0.10528182983398438, 0.25209105014801025, 0.07557416707277298, 0.05174930393695831, 0.05123450234532356, -0.2603783905506134, -0.2046695500612259, -0.01868298463523388, -0.09335005283355713, 0.20648986101150513, 0.019762367010116577, 0.27276819944381714, 0.19694088399410248, 0.03301316499710083, 0.32636532187461853, -0.9477462768554688, -0.23371930420398712, 0.2531520128250122, 0.3926381766796112, -0.34430283308029175, 0.11368309706449509, 0.14230556786060333, -0.1241958737373352, 0.07493557035923004, 0.11710730195045471, 0.010876130312681198, -0.10327652841806412, -0.001725515234284103, 0.023842932656407356, 0.10860239714384079, -0.5248181223869324, 0.4026845097541809, -0.3340698182582855, -0.009205573238432407, -0.1532803624868393, -0.023372337222099304, -0.07173372805118561, -0.058353081345558167, 0.06402809917926788], [0.524354875087738, 0.14067266881465912, -0.25118693709373474, -0.1191948652267456, -0.15055999159812927, 0.5309244990348816, 0.5330365896224976, -0.31237736344337463, 0.26742005348205566, -0.03206397220492363, -0.18348008394241333, -0.14834848046302795, -0.34958410263061523, 0.7262846231460571, -0.007954370230436325, 0.09531708806753159, 0.3810671269893646, 0.08495917916297913, 0.15001104772090912, 0.03561314940452576, 0.388110488653183, -0.1290082037448883, 0.013938750140368938, -0.14386804401874542, 0.07478535175323486, 0.0014934345381334424, -0.16953331232070923, 0.08589767664670944, 0.0777331218123436, 0.16041196882724762, 0.18555699288845062, 0.10420673340559006, 0.32845011353492737, 0.2088940441608429, -0.034767258912324905, -0.264363169670105, -0.09973810613155365, -0.002734759822487831, 0.01865568943321705, 0.14168408513069153], [-0.1631486564874649, -0.15009790658950806, 0.03611975535750389, -0.14614881575107574, -0.02782457508146763, -0.29496851563453674, -0.25071173906326294, -0.3560693562030792, -0.06810899078845978, 0.12723545730113983, 0.15883438289165497, 0.09069669991731644, 0.05063033476471901, -0.01764758676290512, 0.04651966318488121, -0.39731475710868835, -0.5653490424156189, -2.3200817108154297, -0.00890366267412901, 0.4026836156845093, 0.6408218145370483, -0.2920376658439636, 0.060342937707901, -0.3852059543132782, -0.0530535988509655, 0.08860773593187332, 0.008290083147585392, -0.17929404973983765, -0.026477906852960587, -0.17914429306983948, -0.016385560855269432, 0.07600527256727219, 0.01999133825302124, 0.15603846311569214, -0.028579246252775192, 0.05016864463686943, -0.058090295642614365, -0.05556178838014603, 0.1156439483165741, 0.05725424736738205], [0.8350774049758911, 0.0609845407307148, -0.5173793435096741, 0.024648409336805344, -0.2843013405799866, 0.41727155447006226, -1.1374415159225464, -0.39556390047073364, -1.5820783376693726, -0.30098477005958557, -0.4225304424762726, -0.3463009297847748, 0.05920293182134628, -1.5674968957901, -0.5493319630622864, 0.17841675877571106, -0.6064985394477844, -0.9048300385475159, -0.5578485131263733, -0.12092448025941849, -0.8052438497543335, -1.2869006395339966, 0.0016445947112515569, 0.04973679780960083, 0.0736098363995552, -0.01844722405076027, 0.35327664017677307, -0.10212676227092743, 0.32854318618774414, -0.03352348506450653, -0.19666559994220734, -0.4675239622592926, 1.2427729368209839, -0.15872307121753693, -0.6616970896720886, -0.4384869635105133, -0.15622812509536743, 0.2536509931087494, 0.09424877911806107, 0.026926329359412193], [-0.4609084725379944, -0.003930752631276846, 0.2988448143005371, 0.06753687560558319, 0.310306191444397, -0.3125742971897125, 1.4784283638000488, 0.2034718245267868, 0.13103699684143066, 0.39518171548843384, 0.30481743812561035, -0.04409882426261902, -0.08246073126792908, -0.0694226548075676, 0.6336842179298401, 0.09354200959205627, -0.45242828130722046, 0.4623622000217438, -0.5150080323219299, 0.24394558370113373, 0.49044135212898254, -0.8633743524551392, -0.3862839341163635, 0.24904736876487732, 0.021844428032636642, 0.03458581119775772, 0.05592017620801926, 0.072142593562603, -0.15907999873161316, 0.11292588710784912, -0.12645143270492554, -0.3348045349121094, -0.38158726692199707, 0.48928961157798767, 0.07756594568490982, -0.0596531517803669, -0.08626630157232285, 0.3646264374256134, -0.011182202957570553, -0.08446656912565231], [-0.23051375150680542, -0.10672316700220108, 0.17957550287246704, -0.10345034301280975, -0.017858033999800682, -0.14081303775310516, -0.4357573091983795, -0.060770388692617416, 0.8529584407806396, 0.023072192445397377, 0.12415778636932373, -0.21932923793792725, -0.1002422496676445, -0.43579286336898804, -0.26904451847076416, -0.06266235560178757, 0.38329586386680603, -0.3448105752468109, 0.1264597624540329, 0.32745006680488586, -0.056288231164216995, -0.7795925736427307, -0.17495404183864594, 0.7026524543762207, 0.02598477713763714, 0.016146276146173477, -0.06239480525255203, 0.011330868117511272, 0.0493149496614933, 0.05764569714665413, 0.13359788060188293, 0.35441669821739197, 0.047626711428165436, 0.014392063952982426, 0.23666873574256897, -0.19748422503471375, -0.02985363081097603, -0.16122454404830933, -0.0012161898193880916, 0.031212536618113518], [0.021196266636252403, 0.05831709876656532, -0.1748502403497696, -0.11521714180707932, 0.13641396164894104, 0.05257338285446167, -0.7151291966438293, -0.5119889974594116, 0.19593575596809387, 0.18811450898647308, -0.07219376415014267, 0.08887596428394318, -0.35723257064819336, -0.1895037591457367, -0.3061559200286865, 0.01929505355656147, 0.38613471388816833, -0.19109974801540375, 0.17035499215126038, 0.3711853325366974, 0.33574384450912476, -1.3238606452941895, 0.034076184034347534, 0.3883218467235565, 0.10311912000179291, -0.013644476421177387, 0.02953975275158882, 0.13079054653644562, -0.03587718307971954, -0.11368950456380844, 0.19810928404331207, -0.25639745593070984, 0.1282845288515091, -0.3862164616584778, 0.17144061625003815, -0.10547050833702087, -0.04848947376012802, -0.25905707478523254, -0.1102641150355339, -0.06956949084997177], [0.1678726077079773, -0.05804735794663429, -0.15312740206718445, 0.034801967442035675, -0.010859610512852669, -0.06922893971204758, 0.17782913148403168, -0.3164072036743164, -0.9783392548561096, -0.0016410516109317541, 0.2521962821483612, -0.34148839116096497, -0.546631395816803, -0.6783487200737, -0.49792012572288513, -0.3729216754436493, -0.02597445249557495, -0.15032313764095306, -0.011768623255193233, 0.21390892565250397, 1.1128851175308228, 0.7676362991333008, -0.1334916055202484, -0.1280113160610199, -0.14413586258888245, -0.03378148004412651, -0.052740275859832764, -0.16133995354175568, -0.17035512626171112, -0.0330863893032074, 0.28579387068748474, -0.4187794625759125, 0.16189411282539368, 0.19679294526576996, -0.26787084341049194, -0.07018861919641495, 0.10475917905569077, -0.41256192326545715, -0.15563702583312988, -0.1423087865114212], [-0.0666152760386467, -0.11131797730922699, -0.21186868846416473, 0.001265780651010573, -0.031067615374922752, 0.02950231544673443, 0.19223347306251526, 0.6617056131362915, -0.08930039405822754, 0.021745925769209862, 0.07702101767063141, -0.14648893475532532, -0.042365387082099915, -0.4029500484466553, 0.03382178023457527, 0.17399699985980988, -0.3498639166355133, -0.1297772079706192, -0.21415624022483826, -0.13594335317611694, 0.4260609447956085, -0.5763576030731201, -0.8287813663482666, 0.9933594465255737, 0.024341421201825142, -0.14760524034500122, 0.07783171534538269, 0.10789767652750015, 0.09356481581926346, -0.11361538618803024, -0.18315641582012177, -0.17051538825035095, -0.21794915199279785, 0.43188607692718506, -0.02745046280324459, -0.06277412921190262, 0.14159975945949554, 0.27617916464805603, 0.14174413681030273, -0.033119816333055496], [0.30498820543289185, 0.002664105035364628, -0.1110258549451828, -0.09172079712152481, 0.26356545090675354, 0.3058486878871918, -0.2052808552980423, 0.47668638825416565, 0.059234317392110825, 0.1034979596734047, 0.12137016654014587, 0.09761786460876465, -0.21760345995426178, 0.46471258997917175, 0.29836928844451904, -0.3038596510887146, -0.13804274797439575, 0.426283061504364, 0.4237133264541626, 0.2885492146015167, 0.19448944926261902, -0.09254556149244308, -0.06331155449151993, 1.4849375486373901, -0.05235923081636429, -0.1266596019268036, -0.016126595437526703, -0.21846908330917358, -0.12652119994163513, 0.13863655924797058, -0.06277502328157425, 0.040118634700775146, -0.010923153720796108, -0.42823559045791626, -0.06267625838518143, -0.2211638242006302, 0.0810289978981018, -0.10330886393785477, -0.10318177193403244, -0.07130026817321777], [0.4289620816707611, 0.05435079708695412, -0.4438287019729614, -0.11677446961402893, -0.13186512887477875, 0.09298902750015259, 1.003962516784668, -0.09960019588470459, -0.6220532059669495, -0.43554866313934326, 0.10635359585285187, 0.001809252193197608, 0.13010919094085693, 0.4062746465206146, -0.17724034190177917, 0.4485537111759186, 1.433732271194458, 0.3972052037715912, 0.9600395560264587, 0.28889355063438416, -1.7067910432815552, 0.015591390430927277, 0.4913347065448761, 0.3313843309879303, -0.04326951131224632, 0.030160656198859215, 0.2005762755870819, 0.39693683385849, 0.04395780712366104, -0.22161979973316193, 0.9132565855979919, 0.09744877368211746, 0.46196043491363525, -0.18843801319599152, -0.35219526290893555, -0.2213750183582306, -0.10915505886077881, 0.3268875181674957, 0.050783656537532806, -0.2176630049943924], [0.1323547661304474, -0.06417978554964066, -0.06645621359348297, 0.03507937863469124, -0.016223838552832603, 0.3631772994995117, -0.7694041728973389, -0.03811434283852577, 0.22593390941619873, -0.6989926695823669, 0.3540898859500885, 0.5250279903411865, -0.15260085463523865, -1.2298898696899414, 0.9024312496185303, -0.23194620013237, 0.6203513741493225, -0.4161842465400696, -0.5231709480285645, 0.0015831483760848641, -0.3670441508293152, 0.5136882066726685, 0.4245684742927551, 0.8300216197967529, 0.15106481313705444, -0.05655066296458244, -0.18111731112003326, -0.30415642261505127, -0.028600594028830528, 0.0524865984916687, 0.008760560303926468, 1.4354634284973145, 0.5275248289108276, -0.10625994205474854, 0.09978912025690079, 0.2645215392112732, 0.1318959891796112, -0.29378095269203186, -0.01885925605893135, 0.003532841568812728], [-0.3281998038291931, -0.0002892135817091912, 0.10291783511638641, -0.10709062218666077, -0.23689086735248566, -0.3725583851337433, 0.04598522558808327, 0.2137220948934555, -0.3739736080169678, -0.13167528808116913, -0.06361470371484756, -0.24733497202396393, -0.27827563881874084, -0.5485138297080994, 0.21429918706417084, -0.12394266575574875, -0.011410830542445183, 0.10427529364824295, 0.04758530110120773, 0.11465862393379211, 0.14896054565906525, -0.10537673532962799, 0.09270874410867691, -0.05434155464172363, 0.08906977623701096, -0.07338795065879822, -0.04055991396307945, -0.04596063494682312, -0.18044258654117584, -0.2128843069076538, -0.03100382536649704, 0.2235301285982132, -0.15932981669902802, -0.0181878749281168, -0.10451710969209671, 0.041027531027793884, -0.02411380410194397, 0.030984491109848022, 0.023699115961790085, -0.017224116250872612], [-0.37045228481292725, 0.06008150428533554, 0.3218773305416107, -0.11553323268890381, -0.17088855803012848, -0.35052719712257385, 0.010422728955745697, 0.06631489843130112, -0.35940438508987427, -0.05709167569875717, 0.04808120056986809, -0.00784766674041748, 0.41989678144454956, -0.10826576501131058, -0.3914817273616791, 0.19091638922691345, -0.26489579677581787, -0.3363302946090698, -0.003750045085325837, -0.07670803368091583, -0.31419771909713745, -0.26124507188796997, 0.11237835884094238, -0.1853669434785843, 0.09082529693841934, 0.14565706253051758, -0.055377185344696045, -0.1690175086259842, -0.08506869524717331, 0.13968974351882935, 0.08335121721029282, 0.0814017802476883, -0.408110111951828, -0.024587417021393776, 0.02019769884645939, 0.30631372332572937, 0.02880033105611801, 0.5059335827827454, -0.08769148588180542, 0.12233532965183258], [-0.5586508512496948, 0.12052550166845322, 0.05298883095383644, 0.11431451886892319, 0.28066012263298035, -0.6337693929672241, 0.043380074203014374, 0.16957254707813263, 0.3705326020717621, 0.38960009813308716, 0.12569892406463623, 0.45487919449806213, 0.31258106231689453, 0.08967460691928864, 0.2743123173713684, 0.24115358293056488, -1.353865623474121, 1.99026620388031, -0.48373568058013916, -0.09597152471542358, -1.3951648473739624, -1.1525304317474365, -0.17462757229804993, 0.6703957319259644, 0.15003399550914764, -0.14236141741275787, 0.11344879865646362, -0.023625172674655914, 0.08365871012210846, 0.06791794300079346, 0.02912541665136814, -0.22143127024173737, -0.01984211802482605, 0.20702184736728668, 0.058057647198438644, 6.462022429332137e-05, -0.1432076394557953, 0.5209211111068726, -0.1302662044763565, 0.07511943578720093], [0.487172394990921, -0.08835949748754501, 0.08518174290657043, 0.09743192046880722, -0.04176046699285507, 0.5619251728057861, 0.23806217312812805, 0.3849684000015259, -0.676587700843811, -0.08563478291034698, -0.07604433596134186, -0.0995364561676979, -0.2931787967681885, -0.16514995694160461, 0.14224471151828766, 0.18942520022392273, 0.19318503141403198, 0.07911853492259979, 0.04161013662815094, -0.13834570348262787, -0.3329572379589081, 0.707580029964447, 0.041309334337711334, 0.036075159907341, 0.004657480865716934, 0.04628874361515045, 0.1108018010854721, 0.01019115187227726, 0.07384605705738068, -0.014547060243785381, 0.1545172780752182, 0.05946880206465721, 0.1753436177968979, 0.19068515300750732, -0.041867177933454514, -0.017701977863907814, 0.07617330551147461, 0.07766778022050858, 0.13576816022396088, 0.0016971274744719267], [-0.2299308478832245, -0.15340666472911835, 0.027550917118787766, 0.01381098572164774, 0.1718176305294037, -0.14800582826137543, -0.17949295043945312, -0.23321321606636047, 0.10436025261878967, -0.09489499777555466, -0.1642058938741684, -0.11141335219144821, -0.8930395841598511, 0.07441504299640656, 0.10294103622436523, -0.009776068851351738, -0.08285582065582275, 0.07165174931287766, -0.2511191666126251, -0.01961452327668667, -0.31924349069595337, -0.09189990162849426, -0.19544677436351776, -0.2137184888124466, 0.0434146448969841, -0.053650759160518646, 0.17455537617206573, 0.08787428587675095, 0.015267857350409031, 0.11373495310544968, 0.38946545124053955, -0.06943734735250473, 0.14688338339328766, 0.20457135140895844, 0.1690272092819214, -0.09153665602207184, 0.06267400085926056, -0.12468531727790833, 0.13363943994045258, 0.10596486181020737], [-0.5232931971549988, -0.03607509657740593, 0.1426212042570114, 0.008806067518889904, 0.15843038260936737, -0.2035180777311325, 0.5773463845252991, 0.6117978692054749, 0.5123192071914673, 0.13536778092384338, -0.10103114694356918, -0.01545399334281683, -0.27072709798812866, 0.41892415285110474, 0.0898650735616684, 0.06479533761739731, 0.16417928040027618, -0.20524786412715912, 0.2560189962387085, -0.6432240009307861, 1.0883656740188599, 0.6029125452041626, -0.14694440364837646, 0.2698405086994171, -0.15433812141418457, 0.033638495951890945, 0.11317794024944305, -0.33227312564849854, -0.06806667894124985, 0.014026058837771416, 0.5401049256324768, -0.5774827003479004, -0.09976465255022049, -0.24563054740428925, 0.2885092496871948, 0.2191544771194458, 0.10547288507223129, 0.04449065774679184, 0.12326083332300186, -0.0754861831665039], [-0.2784629464149475, -0.002589596202597022, 0.21628224849700928, 0.03337812051177025, 0.054478686302900314, 0.16072328388690948, 0.5833356976509094, 0.13523998856544495, 0.27311766147613525, -0.05181879550218582, 0.2116609811782837, -0.12521810829639435, 0.8024942278862, 0.12314137071371078, -0.3862976133823395, 0.3945413827896118, -0.27914729714393616, -0.05511600151658058, 0.0379890613257885, 0.12102378904819489, -0.18571531772613525, -0.8331822752952576, 0.4074941575527191, 0.34250345826148987, -0.05563369393348694, 0.05556453764438629, -0.06265436112880707, 0.0020198647398501635, 0.13008363544940948, -0.10058420151472092, 0.3486533761024475, 0.46700605750083923, 0.008566942997276783, -0.23826687037944794, -0.017067555338144302, -0.3142538070678711, 0.1358630359172821, -0.11359329521656036, -0.10589563846588135, -0.22113677859306335], [-0.07468946278095245, 0.08956274390220642, 0.009733865968883038, -0.06807183474302292, 0.1389627456665039, 0.2382901906967163, 0.5830938220024109, -0.7543960213661194, -0.6762201189994812, 0.03631385415792465, 0.19016391038894653, 0.09530097991228104, -0.5032830238342285, 0.9740138649940491, 0.5470422506332397, -0.022257590666413307, -0.9094293713569641, 0.1641198843717575, 0.3188486099243164, 0.4626210629940033, 1.1843019723892212, 1.2713631391525269, -0.27862799167633057, -0.12341063469648361, 0.01961171254515648, -0.033122722059488297, 0.0689779743552208, -0.028399044647812843, 0.14105021953582764, 0.1653696894645691, -0.08311827480792999, 0.10280364006757736, -0.013963419944047928, -0.04541017487645149, -0.21754804253578186, 0.11360989511013031, -0.075438492000103, -0.037097424268722534, 0.15415996313095093, 0.05468568205833435], [-0.40005943179130554, -0.027050554752349854, 0.4160945415496826, -0.059499531984329224, 0.07154523581266403, -0.16649603843688965, -1.2604734897613525, 0.5373823046684265, -0.4998261332511902, 0.1305188685655594, 0.0036719462368637323, 0.0961703509092331, -0.49445757269859314, -0.19775375723838806, 0.3640854060649872, 0.6072167158126831, -0.6529416441917419, 0.07695989310741425, 0.25961047410964966, 0.4679719805717468, -0.10708768665790558, 0.3053573668003082, 0.6991251111030579, -0.21244655549526215, -0.021238896995782852, 0.1458832174539566, 0.10678225010633469, -0.1854330599308014, 0.18660657107830048, 0.18432971835136414, -0.46610334515571594, -0.2341269999742508, -0.18442487716674805, -0.43378663063049316, 0.538149356842041, 0.07164878398180008, -0.07408051937818527, -0.09401686489582062, 0.1425250768661499, 0.16496789455413818], [0.2834884226322174, 0.06012127175927162, -0.17203420400619507, -0.054512180387973785, -0.19424010813236237, 0.090777188539505, 0.06502962857484818, 0.08100195229053497, 0.06496649980545044, 0.10059963911771774, -0.11028445512056351, -0.19549725949764252, 0.1084817573428154, -0.38435569405555725, -0.3230578899383545, 0.25130248069763184, -1.249427318572998, 0.07509221881628036, -0.062254756689071655, -0.34174472093582153, 0.8979595899581909, -1.2046875953674316, 0.1497349590063095, 0.5621510148048401, 0.12733373045921326, 0.13842709362506866, 0.10181006044149399, -0.17088590562343597, 0.06338807195425034, 0.004271271172910929, 0.03742939978837967, -0.24552902579307556, 0.4717453122138977, 0.2422959804534912, 0.1476777046918869, 0.2687109708786011, -0.13473348319530487, -0.23285913467407227, -0.1478361338376999, -0.17031465470790863], [-0.14594465494155884, 0.06751178950071335, 0.24000440537929535, -0.01982996053993702, -0.09412239491939545, -0.07224886119365692, -0.28722497820854187, -0.07888099551200867, 0.166833758354187, 0.013057361356914043, -0.004939755890518427, -0.1585036665201187, -0.05731750279664993, 0.05199181288480759, -0.21064867079257965, -0.48116686940193176, -0.24550160765647888, 0.05311166122555733, -0.06154431775212288, -0.1909494698047638, 0.30361509323120117, 0.15070055425167084, 0.15028822422027588, 0.14938496053218842, -0.07083410769701004, 0.026742342859506607, 0.15711218118667603, 0.20710374414920807, -0.18825125694274902, 0.12922891974449158, 0.06377555429935455, -0.3766860365867615, -0.2777736186981201, 0.19263921678066254, -0.15378567576408386, 0.30564814805984497, -0.04600265994668007, 0.46866217255592346, 0.005007217638194561, 0.0006445763283409178], [-0.42541539669036865, -0.13511137664318085, 0.07857462018728256, 0.056947462260723114, 0.3878113031387329, -0.4895356595516205, -0.28054702281951904, 0.4109209477901459, 0.004601188935339451, 0.2707674503326416, 0.006187638267874718, 0.019639762118458748, 0.8515456318855286, 0.17364491522312164, -0.04063103720545769, -0.2023066282272339, 0.48595213890075684, 0.3238797187805176, -0.29389867186546326, 0.17714066803455353, 0.7792603373527527, 2.322399854660034, 0.032308176159858704, -0.10530915856361389, -0.0560617670416832, 0.008831456303596497, -0.13300104439258575, 0.1591164618730545, 0.0775800347328186, -0.0008392510353587568, -0.025396667420864105, -0.25488823652267456, -0.11815565824508667, 0.15795791149139404, 0.10950136929750443, -0.2984173595905304, -0.09423074126243591, 0.18530556559562683, 0.06650619208812714, 0.17766010761260986], [-0.2755472958087921, -0.1434876024723053, 0.16231806576251984, -0.06997547298669815, 0.2030356228351593, 0.017522824928164482, -0.08881620317697525, 0.08057998865842819, -0.07673591375350952, 0.19598472118377686, 0.0681535005569458, 0.08134300261735916, -0.496815949678421, -0.6288341283798218, -0.10623911768198013, 0.19573943316936493, -0.02333701029419899, 0.0014132610522210598, 0.061693690717220306, 0.08993281424045563, 0.28249117732048035, 0.1750093400478363, -0.014067991636693478, -0.022650448605418205, -0.0860573872923851, -0.05937705188989639, -0.04175027832388878, -0.04454620182514191, -0.12249667197465897, -0.2960115373134613, 0.1503450721502304, -0.1554039567708969, -0.25330230593681335, -0.20764055848121643, -0.17718522250652313, 0.031084122136235237, 0.1506626307964325, 0.3956219553947449, -0.14481516182422638, 0.033124979585409164], [-0.42987021803855896, -0.08370237797498703, -0.16933795809745789, 0.14070403575897217, 0.1328916847705841, -0.35009029507637024, 0.19600971043109894, -0.5725542306900024, -0.26958906650543213, 0.21259593963623047, 0.0043296511285007, -0.06625837832689285, -0.03007248230278492, 0.4128316342830658, 0.1974983662366867, -0.03905900567770004, -0.23028844594955444, -0.11663064360618591, -0.25054898858070374, 0.12158510088920593, -0.4959450960159302, -0.057861872017383575, 0.1643068790435791, 0.034789666533470154, 0.04057413712143898, -0.033897608518600464, -0.08821740746498108, -0.06379909068346024, -0.004585858900099993, -0.0055870553478598595, -0.11335776001214981, 0.25778084993362427, -0.08740484714508057, 0.11833683401346207, -0.07381623238325119, -0.09301087260246277, -0.09566908329725266, -0.029781654477119446, -0.0516735203564167, 0.18313245475292206], [-0.5377963781356812, -0.1402556151151657, 0.270761638879776, -0.12153218686580658, 0.2791003882884979, -0.3155539333820343, -0.09059891849756241, -0.21723900735378265, 0.20303446054458618, 0.15456654131412506, 0.3484548032283783, 0.10925397276878357, 0.06027555093169212, 0.04764729365706444, -0.09984055161476135, -0.4735664427280426, 1.3447997570037842, -0.5317919254302979, 0.06848080456256866, -0.6862282752990723, -1.4531840085983276, -0.9573795795440674, 0.08390240371227264, -1.1603105068206787, -0.12795668840408325, 0.04402247816324234, -0.017652712762355804, -0.03436271846294403, -0.10229115188121796, -0.0643860399723053, -0.21020284295082092, 0.07403028756380081, 0.06196030229330063, 0.08358077704906464, 0.0998060554265976, -0.20485475659370422, -0.06619109958410263, 0.24730083346366882, 0.06353018432855606, 0.03958100825548172], [0.301639586687088, 0.04016203060746193, -0.14692194759845734, -0.10194238275289536, -0.07260052859783173, 0.09860100597143173, 0.26877331733703613, 0.31593015789985657, 0.19263003766536713, 0.1380481719970703, -0.12630701065063477, -0.24819344282150269, 0.0714801549911499, 0.4781043827533722, 0.3813302218914032, 0.21166923642158508, 0.3822014331817627, -0.17587921023368835, 0.4410204589366913, 0.3261403739452362, -0.5693522095680237, 0.47100529074668884, 0.2291780412197113, 0.342708945274353, 0.07009946554899216, 0.12385189533233643, 0.06888913363218307, -0.08810937404632568, 0.05850498378276825, 0.02825288288295269, -0.02979765459895134, -0.24904140830039978, 0.08023962378501892, 0.059083495289087296, 0.019442057237029076, -0.16600000858306885, 0.03582017123699188, 0.03549903258681297, -0.09420506656169891, 0.08956658840179443], [0.30194756388664246, -0.09810541570186615, -0.20761142671108246, -0.017979929223656654, -0.15433256328105927, 0.2530110478401184, -0.07399057596921921, -0.2582210302352905, 0.056457605212926865, 0.12763400375843048, 0.16279582679271698, 0.4169227182865143, -0.4144805669784546, 0.5534840822219849, 0.24982360005378723, 0.3305783271789551, -0.3197552561759949, 0.38421136140823364, -0.15257608890533447, 0.2693893313407898, 0.34617507457733154, -0.25109708309173584, -0.24333709478378296, 0.11862359195947647, -0.11970607936382294, 0.008568084798753262, -0.014641267247498035, 0.04404010623693466, -0.2929403483867645, 0.27501437067985535, -0.22815009951591492, -0.43020084500312805, 0.7149428725242615, 0.08509115874767303, 0.11722494661808014, 0.3057507872581482, 0.038864076137542725, 0.40234264731407166, -0.10695023834705353, 0.238124281167984], [-0.34319645166397095, 0.13477718830108643, 0.14375413954257965, -0.06388591229915619, -0.08082476258277893, -0.049079038202762604, 0.4939328730106354, 0.51811683177948, 0.5089933276176453, 0.11753831058740616, 0.18707707524299622, 0.01459784060716629, 0.1708865761756897, 0.1838919222354889, 0.2905971109867096, -0.1310405731201172, -0.8577700257301331, -0.4728063642978668, -0.19879554212093353, 0.028098387643694878, 1.3863551616668701, -0.14175984263420105, 0.1500721275806427, 1.0670714378356934, -0.08290788531303406, 0.03511057421565056, 0.19167321920394897, 0.006291976198554039, 0.11202263832092285, -0.0009219343191944063, 0.039588481187820435, -0.18004150688648224, -0.28387200832366943, 0.09985054284334183, -0.04491180181503296, -0.052835818380117416, 0.05482674762606621, -0.08745532482862473, 0.06471404433250427, 0.11721401661634445], [0.12430818378925323, -0.00241880863904953, 0.024100888520479202, -0.04503348097205162, -0.10649023950099945, 0.16585084795951843, -0.32992029190063477, -0.27457019686698914, -0.25494346022605896, -0.07910904288291931, 0.09383147209882736, 0.14187419414520264, 0.4266384541988373, 0.13169467449188232, 0.44269150495529175, -0.2062382996082306, -0.8221840858459473, -0.7311197519302368, -0.7140976190567017, -0.7405121922492981, -0.06077471002936363, -0.8682750463485718, 0.012120142579078674, 0.44529202580451965, 0.07804759591817856, 0.14917436242103577, -0.03503363952040672, 0.10874390602111816, 0.15587429702281952, 0.12135376036167145, 0.0848148986697197, -0.3059539496898651, -0.04653029888868332, -0.107393279671669, -0.09531688690185547, -0.08133599907159805, 0.12678168714046478, 0.2152729630470276, -0.15723630785942078, 0.017494812607765198], [0.3142978250980377, -0.005710290744900703, -0.09120561927556992, 0.1160939410328865, -0.014647601172327995, 0.3933698534965515, 0.4819619059562683, -0.02832254394888878, -0.3797666132450104, -0.08754893392324448, 0.27518436312675476, -0.024252835661172867, 0.15325790643692017, 0.23097744584083557, 0.2181519716978073, 0.9995812177658081, -0.11642645299434662, -2.898172616958618, 0.04406608268618584, -0.5844656229019165, 0.41590452194213867, 0.5687680244445801, -0.178890660405159, 0.29202762246131897, -0.10706133395433426, -0.07952097803354263, -0.03277074545621872, 0.15361806750297546, -0.0034002368338406086, 0.15529653429985046, -0.09258482605218887, -0.2503480315208435, -0.11962886154651642, 0.01572178117930889, 0.11545629799365997, 0.09257309138774872, -0.14152021706104279, -0.01808694377541542, 0.012827765196561813, 0.02218903973698616], [-0.26444151997566223, 0.035855982452631, -0.09436029195785522, -0.12096445262432098, -0.22261378169059753, -0.34048759937286377, 0.46385470032691956, -1.247268557548523, 1.3100192546844482, -0.022555295377969742, 0.17279624938964844, 0.24579472839832306, -0.9087750315666199, 0.5693196654319763, -0.8425867557525635, 1.227069616317749, 0.10883764922618866, 0.631722629070282, -0.9274508953094482, 1.653234601020813, -1.036891222000122, 1.4331706762313843, 0.28370729088783264, -2.014812707901001, -0.09950737655162811, 0.07780375331640244, 0.09096607565879822, 0.039191845804452896, -0.07888021320104599, 0.14197418093681335, 0.09083078056573868, -0.4823055863380432, -0.08969499170780182, -0.31396543979644775, -0.153037428855896, -0.11702229082584381, 0.08463380485773087, -0.46294793486595154, 0.04048098623752594, 0.005161715671420097], [-0.1310761570930481, 0.11831142753362656, -0.08631191402673721, 0.08357351273298264, -0.06275678426027298, -0.19156613945960999, 0.47761836647987366, 0.19300831854343414, 0.2109145224094391, -0.06477490067481995, 0.1122106984257698, 0.1601431965827942, -0.03660281375050545, 0.49281755089759827, 0.6000826954841614, 0.4901244044303894, -0.5042100548744202, -0.2646644115447998, -0.13757023215293884, 0.12646858394145966, -0.2888001799583435, 0.4592157304286957, -0.09324962645769119, -0.021634148433804512, -0.13689322769641876, -0.06045204773545265, 0.061728619039058685, -0.06316310912370682, -0.09305820614099503, -0.06069169193506241, -0.05616804212331772, -0.13208667933940887, 0.07953524589538574, 0.013183023780584335, 0.1673128604888916, -0.11671565473079681, 0.045572664588689804, 0.014528026804327965, 0.05222996696829796, -0.032189399003982544], [-0.038190051913261414, 0.03271497040987015, -0.10343001037836075, 0.05107416957616806, 0.005028826650232077, -0.06667924672365189, -0.0026241715531796217, 0.19638437032699585, -0.1050758808851242, 0.01129552535712719, 0.03613382205367088, -0.24733544886112213, 0.2864663898944855, -0.19171687960624695, -0.10977426171302795, 0.37168964743614197, 0.5963205099105835, -0.49013736844062805, -0.06272134184837341, 0.17650623619556427, -0.4416097402572632, 0.01460188440978527, -0.13171803951263428, 0.5504353046417236, -0.01656469702720642, 0.03634604811668396, -0.04296489432454109, 0.038618192076683044, 0.05251722037792206, -0.026692306622862816, -0.00909282173961401, 0.08477970212697983, -0.1272478550672531, -0.10657450556755066, -0.00926179252564907, -0.03200457617640495, 0.010765685699880123, -0.26489415764808655, 0.0032315999269485474, -0.10983879119157791], [-0.4606676995754242, -0.13551266491413116, 0.06877487897872925, 0.11806190758943558, 0.1250140219926834, -0.27190086245536804, -0.892038106918335, 0.5729952454566956, 0.06363607197999954, 0.08234574645757675, -0.14879313111305237, -0.22583042085170746, -0.06832095235586166, 0.6303091645240784, -0.0741727352142334, 0.9430948495864868, 0.1501835137605667, 0.9479116797447205, 0.03189533203840256, -0.9339251518249512, -0.8470942974090576, -0.868440568447113, 0.08462287485599518, 0.8222493529319763, -0.002495956141501665, -0.11709187924861908, 0.10331786423921585, -0.040544603019952774, -0.17617292702198029, 0.14071694016456604, -0.4268605411052704, 0.11004950851202011, 0.2777765691280365, 0.002233229810371995, -0.34560561180114746, -0.14586259424686432, -0.005240582395344973, -0.4317925274372101, -0.005283180624246597, 0.23015618324279785], [0.39772844314575195, -0.06261903792619705, -0.18690642714500427, 0.1070919781923294, -0.13858450949192047, -0.0029748708475381136, -0.9388151168823242, -0.28393521904945374, -2.0249180793762207, 0.11995554715394974, -0.14094731211662292, -0.37111690640449524, 0.6142892241477966, -0.4554801285266876, 0.3150726854801178, -0.28145694732666016, -0.006398847326636314, 0.40970778465270996, 0.3457164168357849, -0.38878998160362244, 0.8879141807556152, 1.0579612255096436, -0.03848831355571747, -0.32760950922966003, 0.08150575309991837, -0.010632142424583435, 0.0977429673075676, 0.10888613760471344, -0.09423653036355972, 0.10693593323230743, -0.040937114506959915, -0.49046579003334045, 0.5119943618774414, -0.007067137863487005, -0.19142483174800873, -0.11438778787851334, -0.014352978207170963, -0.6181637644767761, -0.10315506160259247, -0.02832304872572422], [0.300828754901886, 0.04772018641233444, -0.26879945397377014, -0.13098357617855072, 0.08999760448932648, 0.12112250179052353, -0.1325794756412506, -0.13770416378974915, -0.025339987128973007, -0.1175454780459404, -0.17612092196941376, 0.08571500331163406, -0.25623366236686707, -0.06966181844472885, 0.17870581150054932, -0.33895719051361084, 0.7696524858474731, 0.32555073499679565, 0.05989306420087814, -0.4693913161754608, -0.4497862458229065, 1.12091064453125, 0.5130727291107178, 0.12737952172756195, -0.14415214955806732, 0.12742693722248077, 0.007335623260587454, -0.036980390548706055, -0.05938775837421417, -0.027719538658857346, -0.26542505621910095, -0.528223991394043, -0.07508911937475204, 0.14752179384231567, 0.0790790244936943, -0.4279193580150604, 0.05686705559492111, -0.15556737780570984, 0.032321199774742126, 0.03863406553864479], [0.05911960452795029, -0.002523852279409766, -0.45543336868286133, 0.14168494939804077, -0.16889101266860962, -0.21771425008773804, 0.3298780024051666, -0.6669403910636902, 0.9358937740325928, -0.0006347479647956789, 0.08435136824846268, -0.01760782301425934, 1.4400521516799927, 0.5083625912666321, 0.9918556213378906, 0.817173182964325, 0.6126696467399597, 2.260437250137329, -0.1811135858297348, -0.05923915281891823, -0.5680577158927917, -0.18557289242744446, -0.78102707862854, -0.4584333002567291, 0.026350045576691628, 0.09733547270298004, -0.06643851101398468, -0.11869731545448303, -0.1248043105006218, -0.18104197084903717, 0.10107114166021347, 0.9010884165763855, 0.13545633852481842, -0.0006278398795984685, -0.07305916398763657, 0.07085942476987839, -0.08763925731182098, -0.22937946021556854, -0.10219939798116684, 0.1049104779958725], [-0.2599509656429291, -0.007874642498791218, -0.025383785367012024, 0.12325580418109894, 0.24473877251148224, -0.04998104274272919, -0.4404648244380951, -0.22111491858959198, -0.7735503911972046, 0.03446849063038826, -0.19330905377864838, -0.031107859686017036, 0.0356471911072731, 0.1685134470462799, 0.22322452068328857, -0.15585467219352722, 0.7627934217453003, -0.19350482523441315, 0.06771143525838852, 0.25309497117996216, 0.4016403555870056, 0.043088264763355255, 0.46804043650627136, -0.016655778512358665, -0.03250895440578461, 0.14545927941799164, -0.006731516681611538, 0.08792202919721603, -0.08472201973199844, 0.15463505685329437, 0.1339297592639923, -0.31040889024734497, -0.3688719570636749, -0.10897553712129593, -0.38229966163635254, 0.4271126985549927, -0.14958828687667847, 0.07565324753522873, -0.049712393432855606, 0.2669018805027008], [0.26056376099586487, -0.0966513603925705, -0.06828103214502335, 0.05766889452934265, -0.11948392540216446, 0.15685468912124634, 0.745276689529419, 0.3734561800956726, 0.010991096496582031, -0.1708821803331375, 0.013513575308024883, -0.10267166793346405, 0.07657523453235626, 0.22739718854427338, -0.15437039732933044, -0.03714917227625847, -0.12644493579864502, -0.2599751353263855, 0.04169153422117233, -0.03857940435409546, -0.5721638202667236, 0.03216414526104927, 0.2302827537059784, -0.217043936252594, -0.06900226324796677, 0.07760955393314362, -0.10955927520990372, 0.008336924947798252, 0.013053003698587418, -0.10484828799962997, -0.2507203221321106, 0.1796126514673233, 0.0996478796005249, -0.14857614040374756, -0.05507528781890869, -0.08249493688344955, 0.002217863453552127, -0.256940633058548, 0.019675910472869873, 0.0791095495223999], [-0.14800846576690674, -0.0323171503841877, 0.1428859978914261, 0.08667893707752228, 0.0578310452401638, -0.1408359855413437, 0.07907704263925552, 0.5297268033027649, 0.15446080267429352, 0.16771680116653442, -0.2121129333972931, 0.009845452383160591, 0.3513491153717041, -0.1930982768535614, -0.20166388154029846, -0.08641479164361954, -0.07112821936607361, -0.10964331775903702, 0.33653688430786133, -0.01124278549104929, -0.4347050189971924, -0.48430290818214417, -0.06848708540201187, 0.40124163031578064, -0.015437755733728409, -0.1419489085674286, -0.0725167766213417, 0.28276216983795166, 0.106888547539711, 0.08916025608778, -0.238617941737175, 0.07542582601308823, 0.2653943598270416, 0.5822240710258484, 0.02503586746752262, 0.2068236619234085, 0.01293192245066166, -0.0037010374944657087, 0.14554332196712494, 0.1539422571659088], [0.14245766401290894, -0.1389673948287964, 0.16191498935222626, -0.1050364226102829, 0.22396793961524963, 0.10618710517883301, -0.3507775366306305, 0.24056443572044373, 0.1839447319507599, -0.1312796026468277, -0.12802836298942566, 0.17610816657543182, 0.12133031338453293, -0.0040779756382107735, -0.12379176914691925, 0.18261639773845673, -0.24430151283740997, -0.43955910205841064, 0.4715781509876251, 0.4914456903934479, -0.16387301683425903, -0.1536659300327301, 0.023769667372107506, -0.35905221104621887, 0.12359833717346191, 0.06621354818344116, -0.051941681653261185, 0.12127216905355453, -0.06253527104854584, 0.21085549890995026, 0.1790609508752823, -0.20899823307991028, -0.2104259580373764, 0.03777633234858513, -0.1279030591249466, -0.14583924412727356, -0.00025726514286361635, -0.5056516528129578, -0.060552265495061874, -0.10984688252210617], [-0.026027170941233635, 0.11665990948677063, -0.06572921574115753, -0.03888740763068199, -0.09889005124568939, 0.2639044523239136, -0.3791886568069458, -0.5668969750404358, 0.5498632192611694, 0.00925770215690136, -0.1719362586736679, 0.03518703952431679, 0.2969324588775635, 0.22885124385356903, 0.10184657573699951, 0.25239866971969604, -0.13115428388118744, 0.057841185480356216, -0.19919539988040924, 0.1803087294101715, 0.06597766280174255, -0.06737726926803589, 0.5623762011528015, 0.2043732851743698, 0.07823419570922852, 0.09181883186101913, -0.0808577835559845, -0.20283351838588715, 0.12301456183195114, -0.04642249271273613, 0.01605415530502796, -0.1686004400253296, -0.01154357474297285, 0.3756707012653351, 0.02287181280553341, 0.0035856636241078377, -0.10956716537475586, -0.17016419768333435, -0.1019413024187088, -0.08789768815040588], [-0.617861270904541, -0.0617281012237072, 0.3115178644657135, -0.007286395411938429, 0.28280213475227356, -0.31356778740882874, 0.15926191210746765, -0.01101767923682928, 0.45525091886520386, 0.016069255769252777, 0.3134564161300659, 0.6323479413986206, 0.3873986601829529, -0.021262483671307564, 0.7677506804466248, 0.11581823229789734, 0.15325719118118286, 0.8512793779373169, -0.530286431312561, -0.13207314908504486, 0.9121067523956299, -0.10231775790452957, 0.5714435577392578, -0.350143700838089, 0.010509306564927101, -0.0759599581360817, -0.05761721730232239, 0.07419963926076889, -0.0355682373046875, -0.0016112137818709016, -0.10490100085735321, -0.30820924043655396, -0.3240688443183899, -0.29629039764404297, 0.3075380027294159, 0.09877654165029526, 0.0096827931702137, 0.4831221401691437, 0.05311956629157066, 0.027871865779161453], [-0.4037885367870331, 0.09663944691419601, 0.07691491395235062, -0.025567656382918358, -0.19786787033081055, -0.05122624710202217, 0.3977506458759308, 0.20901823043823242, 0.32573196291923523, -0.07198277860879898, -0.06973310559988022, -0.04402058571577072, -0.18941670656204224, -0.024456385523080826, 0.0978325679898262, 0.23435229063034058, 1.1879569292068481, -0.3241928815841675, 0.1930180788040161, -1.0232634544372559, -0.2214830219745636, 0.09815693646669388, 0.0018955878913402557, 0.7361570000648499, 0.08123018592596054, 0.0510825552046299, 0.023249706253409386, -0.1689365804195404, -0.11094565689563751, -0.04423559084534645, -0.012175273150205612, -0.18060503900051117, -0.05883892625570297, 0.009756275452673435, 0.0017396314069628716, -0.06156701222062111, -0.0027033102232962847, 0.05187350511550903, 0.051267217844724655, 0.046448759734630585], [-0.4855855703353882, 0.09076032787561417, 0.20192314684391022, -0.057584188878536224, 0.1007753312587738, -0.5071064829826355, 0.3466651141643524, 0.18499016761779785, 0.2275790423154831, 0.22417694330215454, 0.1573464274406433, -0.09602119028568268, -0.10731051117181778, 0.14144931733608246, 0.36718299984931946, 0.06674927473068237, 0.5296162366867065, 0.027506807819008827, 0.4004385769367218, 0.8373702168464661, -0.2480659782886505, -0.02271059900522232, -0.07587442547082901, -0.3903898596763611, 0.14053761959075928, 0.1042422503232956, 0.13478735089302063, 0.0432124063372612, -0.13789844512939453, 0.1550600826740265, -0.05653825402259827, 0.06125699356198311, 0.04461156204342842, 0.026479091495275497, -0.04095158353447914, -0.07282131165266037, 0.14370499551296234, 0.35051774978637695, -0.07178353518247604, 0.004167373292148113], [0.46046164631843567, 0.04138015955686569, 0.3478045165538788, -0.09201393276453018, -0.5244719982147217, 0.611804723739624, -0.6110979914665222, -1.47336745262146, -2.1027536392211914, -0.24986840784549713, -0.2166743129491806, -0.16562125086784363, -0.9417911767959595, -0.32094842195510864, 0.14776301383972168, -0.9481071829795837, 0.7675074934959412, -1.341685175895691, 0.8236684799194336, -0.35281822085380554, 0.08539408445358276, -0.15661366283893585, 0.3911031186580658, -0.7465325593948364, -0.12431783229112625, -0.09703370183706284, 0.15127910673618317, 0.1376744657754898, 0.14130167663097382, 0.2033952921628952, -0.3282468914985657, 0.38874995708465576, -0.6206228137016296, 0.21702302992343903, 0.13281241059303284, 0.390457421541214, 0.10339551419019699, 0.4236157536506653, -0.09087010473012924, 0.007644574157893658], [0.6040791869163513, 0.036480363458395004, -0.1302754282951355, 0.04667731001973152, -0.06009240821003914, 0.29930782318115234, -1.2808256149291992, 1.082580804824829, 0.7205714583396912, 0.09279866516590118, -0.21251340210437775, -0.09702535718679428, 0.02619745209813118, 1.0845272541046143, 0.7234097719192505, 0.27188369631767273, -0.129670187830925, -1.138165831565857, 0.0802237018942833, 0.35697177052497864, 1.6537001132965088, -1.4257235527038574, -0.16204500198364258, -0.22057564556598663, -0.0837666317820549, 0.11656097322702408, -0.09449078142642975, 0.05868297442793846, 0.09534382075071335, 0.030715543776750565, 0.22029973566532135, -0.04848310351371765, 0.08486036956310272, -0.21485137939453125, -0.05025005713105202, -0.05777566507458687, -0.09801332652568817, -0.14389382302761078, 0.013270990923047066, -0.03091026097536087], [0.5715314149856567, 0.06496914476156235, 0.13034860789775848, -0.1086658239364624, -0.06465916335582733, 0.542477011680603, 0.03224800527095795, -0.1523710936307907, -0.6027447581291199, 0.07220526784658432, -0.10071927309036255, -0.06568480283021927, -0.08943803608417511, -0.36390429735183716, -0.22743205726146698, -0.24386034905910492, 0.6001963019371033, -0.6593853831291199, -0.24868005514144897, 0.21942712366580963, -3.163029909133911, -0.37039071321487427, -0.04402980953454971, 0.07210833579301834, 0.1553710252046585, 0.06304703652858734, 0.0006085261120460927, -0.0015133143169805408, -0.10461290180683136, -0.07181169837713242, 0.12691056728363037, -0.08198815584182739, -0.02042851597070694, -0.12280811369419098, 0.03516489267349243, -0.07480001449584961, -0.12769632041454315, -0.14715588092803955, 0.0008099261904135346, -0.02723800390958786], [-0.14716680347919464, 0.044203199446201324, 0.1427403837442398, -0.004493139684200287, -0.13669316470623016, -0.10032220184803009, -0.35041144490242004, -0.1885652095079422, -0.04947351664304733, 0.060043852776288986, 0.011396157555282116, -0.20793786644935608, -0.3262273967266083, 0.06547407805919647, 0.7537069320678711, -0.21711184084415436, 0.9109259843826294, 0.17634432017803192, -0.3855896592140198, -0.3771425783634186, 0.16298389434814453, 0.011271623894572258, -0.16952165961265564, 0.27184346318244934, -0.01579231768846512, 0.011942273937165737, -0.22916588187217712, 0.03861761838197708, -0.2189282774925232, 0.11812935024499893, -0.2426690012216568, 0.22332407534122467, -0.4161924421787262, 0.23608702421188354, 0.08673971146345139, 0.07446438074111938, 0.057511527091264725, 0.004885511938482523, -0.05633348599076271, 0.06268271058797836], [0.2184450477361679, 0.022859089076519012, 0.20580099523067474, 0.09819864481687546, -0.03590870276093483, 0.06449082493782043, 0.026769861578941345, -0.10901724547147751, -0.16553093492984772, -0.03299928084015846, -0.028916142880916595, 0.021942974999547005, 0.13539157807826996, 0.295177161693573, -0.0042063770815730095, -0.11664453893899918, 1.4885252714157104, 0.5494604706764221, 0.4868255853652954, -0.17398230731487274, -0.6001675724983215, 1.0363963842391968, -0.14184004068374634, 0.47462114691734314, 0.10716444998979568, 0.04400915279984474, 0.0761522501707077, 0.11521635204553604, 0.09569219499826431, -0.010777443647384644, -0.02544117532670498, 0.12714406847953796, -0.10263918340206146, -0.2823101282119751, 0.08316339552402496, 0.023636478930711746, 0.06616333872079849, -0.17436100542545319, -0.13073982298374176, 0.08198893070220947], [0.1285097897052765, -0.012370760552585125, -0.11524172127246857, 0.12131043523550034, 0.15721288323402405, 0.3132495582103729, -0.1409638226032257, -0.8332599401473999, -0.642139732837677, 0.06133563071489334, -0.14494015276432037, 0.07682665437459946, 0.2772708833217621, 0.14794790744781494, -0.232913076877594, -0.039865147322416306, 0.6175233125686646, 0.15867029130458832, -0.19212767481803894, 0.0009449892677366734, -0.27889367938041687, 0.18495044112205505, 0.16189146041870117, -0.09350497275590897, -0.15172524750232697, 0.005428918171674013, -0.03847624734044075, 0.021809814497828484, -0.005332838743925095, 0.031999748200178146, 0.0010227523744106293, -0.29868242144584656, -0.1433214694261551, 0.16202352941036224, -0.0064663453958928585, -0.013100060634315014, 0.06831828504800797, 0.1202986016869545, -0.1192062497138977, 0.012958384118974209], [0.02424415946006775, 0.04711727425456047, -0.19575242698192596, -0.01470640953630209, 0.09600992500782013, 0.1033480167388916, -0.3292059302330017, -0.3725305497646332, -0.007681127637624741, -0.2537599503993988, -0.06998933851718903, -0.20513799786567688, 0.03690807521343231, -0.43040570616722107, -0.008953559212386608, 0.06651682406663895, 0.40875327587127686, -0.14412224292755127, 0.9227948784828186, -0.46802830696105957, -0.5230297446250916, 0.6472381353378296, 0.8272984623908997, -0.16088779270648956, -0.08264129608869553, -0.14298701286315918, 0.008594819344580173, 0.06797750294208527, 0.011958787217736244, 0.35162612795829773, -0.12802638113498688, 0.09550028294324875, 0.09569068998098373, -0.3283000588417053, -0.07833568006753922, 0.22355136275291443, -0.06211293488740921, -0.4720263183116913, -0.07882702350616455, -0.1745796501636505], [0.11607000976800919, -0.1466130018234253, 0.18911129236221313, -0.0853482186794281, 0.14388802647590637, -0.1051056757569313, -0.08675047010183334, 0.10163692384958267, -0.4790036678314209, 0.07994410395622253, 0.06139708310365677, 0.2025870531797409, -0.16595706343650818, -0.055892009288072586, 0.029108773916959763, -0.18283304572105408, 0.27796632051467896, -0.20378713309764862, -0.5503107905387878, -0.37697696685791016, -0.9060878753662109, -1.7199381589889526, -0.13752402365207672, -0.25998079776763916, 0.11336273699998856, 0.038843605667352676, 0.0032278127036988735, 0.0952053964138031, 0.0038927465211600065, -0.06264738738536835, 0.08594322949647903, 0.11310278624296188, -0.018290385603904724, -0.1840023696422577, -0.016716396436095238, 0.0395234189927578, 0.03810792416334152, 0.2246638387441635, 0.10281143337488174, 0.009739021770656109], [-0.09044212847948074, -0.08268053829669952, 0.03785748407244682, 0.09995494037866592, -0.08689261972904205, -0.08772281557321548, 0.11899975687265396, -0.023265132680535316, 0.3651258647441864, 0.01748502440750599, 0.16468125581741333, 0.3410995900630951, -0.05833323299884796, -0.29720160365104675, 0.6041508913040161, -0.21985502541065216, 0.13468950986862183, 0.34282347559928894, 0.017946530133485794, 0.4640592336654663, -0.19073311984539032, -0.11496478319168091, -0.7762526273727417, 0.16887423396110535, -0.03775368258357048, 0.03590868413448334, 0.09423182904720306, 0.08281176537275314, -0.03622748330235481, -0.1453922539949417, 0.22593392431735992, 0.22265593707561493, 0.1587778925895691, -0.43124130368232727, -0.1369192749261856, -0.018316948786377907, -0.1230771541595459, 0.5830082297325134, -0.11428927630186081, -0.14263968169689178], [-0.26650458574295044, -0.0026592607609927654, 0.08920888602733612, 0.07070493698120117, 0.16240741312503815, -0.23327161371707916, 0.41184931993484497, -0.1521548181772232, -0.6858667731285095, 0.044212762266397476, -0.04136533662676811, -0.12906993925571442, -0.05982915312051773, 0.04717491567134857, 0.5418530702590942, -0.17072394490242004, -1.9976797103881836, -0.5978109836578369, -0.07243737578392029, 0.5500357747077942, 1.4397542476654053, -0.2425033152103424, 0.1871785819530487, -0.802238404750824, -0.0490260012447834, -0.14659610390663147, -0.08496423065662384, 0.021887049078941345, -0.05307953804731369, -0.06954207271337509, 0.07659845799207687, 0.22915944457054138, 0.10816417634487152, -0.28922179341316223, 0.013973169960081577, -0.11805423349142075, 0.12366702407598495, 0.20581607520580292, -0.028911935165524483, 0.06507551670074463], [-0.35445693135261536, 0.11710556596517563, 0.2983705997467041, 0.0002047151210717857, 0.24589033424854279, 0.010865145362913609, -0.08087116479873657, 1.0979433059692383, 1.904909372329712, 0.19428537786006927, -0.04849393665790558, 0.18401895463466644, -0.6356797814369202, 0.20982220768928528, -0.42716655135154724, -0.3317510783672333, 1.178550362586975, -0.14054416120052338, 0.5182872414588928, -0.266944020986557, -0.986745297908783, 0.5537923574447632, -0.002296395367011428, -0.8291486501693726, -0.14639538526535034, -0.11987730115652084, 0.023322777822613716, -0.03403281047940254, 0.07458151131868362, -0.08171181380748749, -0.1530507206916809, 0.26352930068969727, -0.24800218641757965, -0.06092580780386925, 0.32042786478996277, -0.10917842388153076, 0.14370812475681305, 0.05194418877363205, 0.09005322307348251, 0.07968982309103012], [-0.14140410721302032, 0.1529967337846756, 0.24300497770309448, 0.14869937300682068, 0.699677586555481, -0.3159010708332062, 0.28368663787841797, 0.6392613649368286, 0.1666659414768219, -0.36400675773620605, -0.4278211295604706, -0.7018402814865112, -0.7969043254852295, 0.2268041968345642, 0.1592477709054947, -0.06260333955287933, -0.993563175201416, -0.11010992527008057, -0.1447649896144867, 0.1388368010520935, -0.5446047782897949, 0.5188290476799011, -0.29663407802581787, -0.06127825751900673, -0.08439304679632187, -0.11795392632484436, -0.10978124290704727, 0.01845162734389305, -0.22609207034111023, -0.03627648577094078, -0.7377740144729614, -0.2706296145915985, 0.09602393209934235, -0.3422139585018158, 0.41035333275794983, -0.35445648431777954, -0.13902461528778076, 0.4658936560153961, 0.14959774911403656, 0.11773241311311722], [0.21563419699668884, -0.12738974392414093, 0.004903234541416168, -0.08405056595802307, -0.172866553068161, 0.3248266279697418, -0.04392092302441597, 0.2891060411930084, -0.1736905723810196, -0.16194860637187958, -0.29696932435035706, -0.015530592761933804, -0.2508994936943054, 1.2808114290237427, 0.3025701940059662, -0.46728837490081787, -0.520793616771698, -0.5624918341636658, 0.10006068646907806, 0.05023372918367386, -0.18434497714042664, 0.7703267931938171, -0.5521482825279236, 0.04975855350494385, -0.059876032173633575, 0.06089678034186363, 0.11652053147554398, -0.13362985849380493, 0.10747081786394119, -0.26473644375801086, 0.05266497656702995, 0.46740788221359253, -0.19593362510204315, 0.2803390324115753, -0.43135061860084534, -0.261025071144104, -0.11298908293247223, 0.5474535226821899, -0.12623460590839386, -0.21026863157749176], [0.34586870670318604, -0.08435074985027313, -0.2512681484222412, 0.09279243648052216, -0.033450473099946976, 0.2761106789112091, 1.024834156036377, 0.6901552081108093, 0.49993059039115906, -0.02405751682817936, -0.1434798389673233, -0.06644000858068466, -0.11475290358066559, 0.6118692755699158, -0.017766889184713364, 0.3004528284072876, 0.7486177682876587, -0.3114568889141083, 0.031346436589956284, -0.9009832739830017, 1.0062159299850464, 2.18127703666687, 0.18473751842975616, 0.14950846135616302, -0.009965523146092892, 0.05320727080106735, 0.0033723677042871714, -0.06979555636644363, 0.010044395923614502, 0.05808672308921814, 0.26083433628082275, -0.07676231116056442, 0.3050868809223175, -0.26832932233810425, -0.20442424714565277, 0.04481947794556618, -0.11236286908388138, -0.3594187796115875, 0.06814849376678467, -0.08336034417152405], [-0.42570754885673523, -0.12610648572444916, 0.2650909721851349, -0.08660934865474701, -0.20191261172294617, -0.1546667218208313, -0.7024468183517456, 0.7768016457557678, -0.3678756654262543, -0.32176047563552856, -0.4735698401927948, 0.3636656403541565, -0.15668077766895294, -0.15224193036556244, -0.383771151304245, 0.3848797082901001, 0.6862877607345581, 0.043630845844745636, 0.07882605493068695, -0.25075483322143555, -0.005620778072625399, 1.1156797409057617, -0.4870676100254059, 0.398602694272995, 0.07453860342502594, -0.049494802951812744, -0.21465784311294556, 0.006761600729078054, 0.13858844339847565, 0.2664702832698822, 0.2122795581817627, 0.4067787230014801, -0.025876998901367188, 0.30718716979026794, -0.1378747522830963, -0.06323880702257156, -0.061279296875, 0.9686951637268066, 0.11479745805263519, 0.004724657628685236], [0.6520446538925171, 0.15454009175300598, -0.1027296856045723, -0.15295732021331787, -0.026028595864772797, 0.34286558628082275, 0.49666255712509155, 0.19916068017482758, 0.5049702525138855, 0.043097034096717834, -0.3331845998764038, 0.01585223712027073, 0.30860021710395813, 0.3085844814777374, 0.2327413111925125, 0.25738635659217834, -0.06325739622116089, -0.2280077040195465, -0.01841575838625431, 0.3658154010772705, 0.8612387776374817, -1.015604853630066, 0.035107824951410294, -0.36870601773262024, 0.10367459058761597, 0.006866033188998699, 0.09434238076210022, 0.22328364849090576, 0.03629351034760475, -0.08358510583639145, -0.17493468523025513, 0.27657705545425415, 0.16419266164302826, 0.46801477670669556, 0.17108099162578583, -0.14863835275173187, -0.007711621001362801, -0.17693260312080383, -0.013254799880087376, -0.18022474646568298], [0.23582738637924194, 0.07102210074663162, 0.13113480806350708, -0.08547290414571762, -0.04297371581196785, 0.1214904710650444, -0.5218784809112549, 0.6095420122146606, 0.26893138885498047, 0.137092724442482, -0.05356073006987572, 0.010389906354248524, 0.12670539319515228, 0.1354103535413742, -0.18025551736354828, -0.15639568865299225, 0.45255979895591736, -0.5369668006896973, 0.035259220749139786, 0.729418933391571, 0.5320544242858887, -0.6432775259017944, -0.2836419343948364, -0.030108466744422913, -0.01784638501703739, 0.026984717696905136, 0.04728731885552406, -0.06874503195285797, 0.06017055734992027, 0.012984967790544033, 0.09119945764541626, 0.02730753645300865, 0.06149538233876228, 0.10190795361995697, 0.046066004782915115, 0.00705375149846077, 0.11026054620742798, -0.06984376162290573, 0.12927097082138062, -0.05507771670818329], [0.04471176117658615, -0.032421983778476715, 0.24903027713298798, -0.03752044960856438, 0.3011522591114044, 0.31530454754829407, 0.7192025780677795, -0.9586588144302368, -0.3830886483192444, -0.10317295789718628, 0.14439575374126434, 0.2902424931526184, 0.45410001277923584, 0.7886845469474792, -0.2677253484725952, -0.0588388592004776, -0.8410467505455017, -0.1046581119298935, 0.6937646865844727, -0.3024556636810303, 0.3068176209926605, 1.134186029434204, -0.6635755896568298, -0.249176487326622, 0.13078534603118896, -0.03526948764920235, -0.04793688654899597, -0.004732752218842506, -0.01509756501764059, 0.17982274293899536, 0.13781523704528809, -0.9884066581726074, 0.022652642801404, -0.4232712686061859, 0.15901143848896027, -0.029768357053399086, 0.1135314479470253, 0.60904461145401, -0.07586237788200378, -0.018549898639321327], [0.09790198504924774, 0.01633104868233204, -0.0904107615351677, 0.13670699298381805, 0.0446348562836647, -0.07181648164987564, -0.23292410373687744, -0.09541089087724686, -0.2118493616580963, 0.04666348546743393, 0.11333390325307846, 0.1195269450545311, -0.13948586583137512, 0.255634605884552, 0.3205885887145996, -0.21001426875591278, 0.02123708464205265, -0.28472036123275757, 0.2950200140476227, -0.5030770897865295, 0.3039420247077942, 0.5714542269706726, 0.2087753862142563, -0.49029281735420227, 0.08048636466264725, -0.0046573299914598465, -0.042195603251457214, 0.042427871376276016, 0.056995779275894165, 0.061501242220401764, 0.08573751151561737, -0.11467402428388596, -0.13840247690677643, 0.0612669363617897, -0.12733441591262817, -0.3450378477573395, 0.03380249813199043, -0.2990369498729706, -0.15114332735538483, 0.09968973696231842], [-0.0240195132791996, 0.1284724473953247, 0.09123310446739197, -0.12761299312114716, -0.11454928666353226, -0.06124444305896759, 0.7229844331741333, 0.10542164742946625, 0.18230855464935303, 0.2570332884788513, -0.054655857384204865, -0.10673072934150696, 0.08784125000238419, -0.1985909342765808, 0.3892817795276642, -0.0649508535861969, -0.29213428497314453, -0.15677368640899658, 0.04234407842159271, -0.06948330998420715, -0.6837753653526306, -0.4541029930114746, 0.18754935264587402, 0.2537669241428375, 0.04029900208115578, -0.031635452061891556, 0.059994444251060486, -0.07101999968290329, 0.11812817305326462, -0.06555654853582382, 0.12095702439546585, 0.022298390045762062, 0.13309483230113983, 0.5019821524620056, 0.0661650151014328, 0.13536511361598969, -0.0015166749944910407, -0.1287257820367813, -0.11565254628658295, -0.004625505302101374], [-0.18037058413028717, -0.10170328617095947, 0.3007395565509796, 0.033112071454524994, 0.3154108226299286, -0.2880017161369324, -0.15517471730709076, -0.4350833296775818, -0.2977789640426636, 0.19486011564731598, 0.09742297232151031, 0.03141205757856369, 0.1943819522857666, -0.10569358617067337, -0.2791202664375305, -0.037890732288360596, 0.1579277515411377, -0.15796801447868347, 0.2383824735879898, 0.03603154420852661, 0.42300206422805786, 0.2671668827533722, -0.06138088181614876, -0.23529648780822754, 0.07666855305433273, -0.15487287938594818, 0.0779726505279541, 0.08129863440990448, -0.1774555891752243, -0.004944156855344772, -0.011070970445871353, 0.043136898428201675, -0.22878673672676086, 0.003530682297423482, -0.127513587474823, 0.19655603170394897, -0.08765910565853119, 0.02116071805357933, 0.08917934447526932, 0.0790427178144455], [-0.49959510564804077, -0.011652382090687752, -0.2020430564880371, -0.028372392058372498, 0.036311689764261246, -0.4160979092121124, 0.6521957516670227, -0.7765417098999023, -0.4600595533847809, 0.10635329782962799, 0.13351590931415558, -0.06071396917104721, -0.19341987371444702, 0.32750725746154785, -0.135018989443779, -0.19871295988559723, 0.5728164315223694, 0.09283176064491272, 0.06006716191768646, -0.28772690892219543, 0.6860899329185486, 0.7824487090110779, -0.3040405511856079, -0.012305397540330887, -0.029907746240496635, -0.13010865449905396, 0.023099370300769806, 0.00010257490794174373, 0.022483130916953087, -0.010418541729450226, -0.08665724098682404, 0.09952829778194427, -0.13680878281593323, 0.20719538629055023, 0.09666857123374939, -0.13049288094043732, -0.11309297382831573, 0.3428972661495209, -0.11105547100305557, -0.07266470044851303]], "bias": [-0.22742502391338348, -0.11800801008939743, -0.17446854710578918, -0.04915442317724228, 0.1971907764673233, 0.20449413359165192, 0.01685231365263462, -0.037460554391145706, 0.038155071437358856, -0.28520870208740234, 0.2171524614095688, -0.04155240207910538, 0.2633516192436218, 0.16652874648571014, 0.04000438004732132, -0.09656604379415512, -0.1845572143793106, -0.45516878366470337, -0.007380146533250809, 0.14905418455600739, -0.11846300959587097, -0.35688886046409607, 0.23240503668785095, -0.11781612038612366, -0.2441219538450241, -0.2225842922925949, -0.18139514327049255, 0.1554686427116394, -0.20031961798667908, -0.09451787918806076, -0.3193668723106384, 0.17902134358882904, 0.02226346731185913, 0.011659413576126099, 0.05445351451635361, -0.13754448294639587, -0.06723316013813019, -0.46967631578445435, -0.10837743431329727, 0.16877351701259613, 0.25040939450263977, 0.027094801887869835, 0.07887282967567444, 0.1469043642282486, 0.13609890639781952, 0.22886380553245544, 0.007703795563429594, 0.4054371118545532, -0.15258711576461792, 0.10263264179229736, 0.22569064795970917, -0.045550890266895294, -0.15084058046340942, 0.20262356102466583, -0.011022796854376793, -0.1226254403591156, 0.2756621837615967, 0.018232304602861404, 0.025126148015260696, -0.12473847717046738, 0.17567597329616547, -0.1839323341846466, 0.03878376632928848, -0.3517707884311676, -0.25021615624427795, -0.401594877243042, 0.17575879395008087, -0.1558951735496521, 0.09159501641988754, -0.03441118076443672, -0.07338511943817139, 0.08396173268556595, 0.17327198386192322, -0.05851022154092789, 0.26772600412368774, -0.0005121305002830923, -0.17183595895767212, -0.08177727460861206, 0.13552378118038177, 0.14894349873065948, -0.17292849719524384, -0.11367234587669373, 0.07369326800107956, 0.13827653229236603, 0.370269238948822, 0.16207896173000336, -0.10248883813619614, -0.17121011018753052, 0.07782156020402908, -0.1945534646511078, 0.21443375945091248, 0.0845126137137413, -0.11647779494524002, 0.12424179911613464, 0.3345929682254791, -0.09750629961490631], "activation": "tanh"}, {"weight": [[0.061647918075323105, -0.06050920486450195, -0.04222164303064346, -0.25829213857650757, -0.02163032628595829, 0.041332993656396866, 0.12499291449785233, 0.08869025856256485, 0.048849917948246, 0.07496216148138046, -0.17360031604766846, 0.13714838027954102, 0.02697747014462948, 0.10889062285423279, -0.09514405578374863, 0.014432943426072598, 0.12287507206201553, 0.0890858918428421, -0.0034403547178953886, -0.05337921530008316, -0.06246979162096977, -0.19452619552612305, 0.11173305660486221, 0.14456555247306824, 0.02874721586704254, 0.06741403043270111, 0.03322025388479233, -0.09846942871809006, 0.11208795011043549, -0.36714252829551697, -0.006293702404946089, 0.08321776986122131, -0.1438414454460144, -0.012369833886623383, 0.012405883520841599, 0.17982977628707886, 0.11852151155471802, -0.02158137410879135, 0.1361006498336792, 0.08748485893011093, -0.0598912350833416, 0.4153454303741455, 0.22026723623275757, 0.08396344631910324, 0.012337643653154373, -0.0525057353079319, 0.20853088796138763, -0.09764935821294785, 0.11152694374322891, 0.08273499459028244, -0.008769663982093334, 0.03942444920539856, 0.11405500769615173, -0.09627684950828552, -0.11057384312152863, 0.10170028358697891, -0.001441997941583395, 0.12670081853866577, -0.5163605213165283, -0.2728496491909027, -0.1540140062570572, -0.18459129333496094, 0.045053958892822266, -0.004871344193816185, -0.0024385328870266676, 0.08239918202161789, -0.05850643292069435, -0.13563328981399536, 0.19141151010990143, -0.2241491824388504, -0.0008093689102679491, 0.06864636391401291, 0.1197703406214714, -0.008443169295787811, -0.19113630056381226, -0.2592044472694397, -0.05691749230027199, 0.08758104592561722, 0.03424890711903572, 0.04080631956458092, 0.04928627610206604, 0.0740489512681961, 0.13027922809123993, -0.13653384149074554, 0.02438231185078621, -0.11906389892101288, 0.09499634057283401, -0.017701292410492897, -0.05808667466044426, -0.049788378179073334, -0.05545450747013092, 0.04592624679207802, 0.1147204264998436, 0.0427590049803257, -0.11771832406520844, 0.14543679356575012], [0.05364251136779785, -0.034029729664325714, -0.21022750437259674, -0.09354995936155319, 0.018169624730944633, 0.11234132945537567, 0.13878817856311798, 0.08761861175298691, 0.15171180665493011, 0.03649981692433357, -0.09989369660615921, 0.15095548331737518, -0.061552632600069046, 0.055842749774456024, -0.07580171525478363, 0.06013267859816551, 0.03616809844970703, 0.024651700630784035, -0.12259982526302338, 0.0060630422085523605, -0.01249972078949213, 0.23022226989269257, 0.059738513082265854, -0.03773088753223419, 0.029152333736419678, 0.02669217437505722, 0.02584860846400261, 0.06328085064888, 0.08003941923379898, 0.05549226701259613, 0.016359493136405945, -0.029023531824350357, 0.1784963309764862, 0.06280087679624557, 0.2170807272195816, 0.047520335763692856, -0.07943721115589142, 0.026227878406643867, -0.042688921093940735, -0.001328175887465477, 0.05641559138894081, 0.08379343152046204, 0.13531488180160522, 0.009210258722305298, -0.06712070852518082, -0.08197396993637085, -0.13173474371433258, 0.1339363157749176, 0.10163888335227966, 0.035136040300130844, -0.12223094701766968, 0.09115397185087204, -0.06846704334020615, -0.06595496833324432, -0.18864011764526367, 0.05529172718524933, -0.0704151839017868, 0.0025277663953602314, -0.017538905143737793, 0.17038583755493164, 0.017504854127764702, -0.08682890981435776, 0.23730848729610443, -0.03756695240736008, -0.13811922073364258, -0.10458582639694214, 0.05261405557394028, 0.0007720821304246783, -0.1440625786781311, 0.04038286209106445, -0.09790053963661194, -0.025458309799432755, 0.02550501562654972, -0.040198247879743576, 0.10153160989284515, -0.12296400964260101, 0.20045261085033417, -0.04493122920393944, -0.07462635636329651, 0.16777126491069794, -0.0751112848520279, 0.11219669878482819, 0.10512622445821762, 0.02910393849015236, 0.1205957680940628, -0.01574970968067646, 0.09419571608304977, -0.1651850938796997, 0.08095138520002365, -0.0911368578672409, 0.0890185534954071, -0.030565563589334488, 0.01182496640831232, -0.05847948417067528, 0.12564286589622498, -0.046750910580158234], [0.024779878556728363, 0.15458492934703827, 0.019897138699889183, 0.18050706386566162, -0.051068421453237534, 0.1192740797996521, -0.3193594813346863, 0.21029944717884064, 0.12739327549934387, -0.009829145856201649, 0.2388671636581421, -0.41075029969215393, -0.09953033179044724, 0.013838445767760277, 0.029540646821260452, 0.06762278079986572, -0.13058969378471375, 0.019383277744054794, -0.03866075724363327, -0.022870592772960663, 0.10661327838897705, -0.053688183426856995, -0.010186465457081795, -0.1437559723854065, 0.12698833644390106, -0.07496307790279388, 0.1153162494301796, 0.1662304550409317, -0.11985801160335541, 1.1344143152236938, 0.04533706232905388, -0.05445964261889458, 0.049493011087179184, 0.01981687732040882, -0.0191804226487875, 0.07632283121347427, -0.16802003979682922, -0.07711023837327957, 0.12600454688072205, -0.04010782390832901, 0.042079925537109375, -0.7857339382171631, 0.23173289000988007, -0.040736813098192215, -0.0539596751332283, -0.037825509905815125, -0.027900364249944687, -0.02205914631485939, -0.09548453241586685, -0.1035384088754654, -0.050089478492736816, 0.0645008236169815, -0.07451653480529785, 0.03896746039390564, 0.008309267461299896, -0.012661894783377647, -0.12476199120283127, 0.720843493938446, 0.5136509537696838, 0.3539286255836487, 0.2036484032869339, 0.04743778705596924, -0.25229012966156006, -0.06436152756214142, -0.02954290248453617, -0.3025742769241333, 0.02591436728835106, 0.13511840999126434, 0.062281858175992966, 0.029127012938261032, -0.08221413195133209, -0.12016573548316956, -0.053876541554927826, -0.07030042260885239, 0.14212171733379364, 0.3272937536239624, 0.3511795997619629, 0.002768617356196046, -0.016128454357385635, 0.2884502410888672, 0.01077125035226345, 0.2643578052520752, 0.03812564164400101, 0.3175477087497711, 0.07037831097841263, 0.13184484839439392, 0.11766581982374191, 0.08556504547595978, -0.006819470319896936, -0.010189482942223549, 0.2708251178264618, 0.1707937866449356, 0.0686209499835968, 0.06297598034143448, 0.11517216265201569, -0.01951657235622406], [0.14368893206119537, -0.055148620158433914, 0.09294915944337845, 0.09898378700017929, 0.016451364383101463, -0.09999754279851913, 0.030906837433576584, -0.019388560205698013, 0.22693753242492676, -0.03917485475540161, -0.032147638499736786, -0.2880312502384186, 0.003312330227345228, 0.08460208773612976, 0.10776713490486145, 0.10419751703739166, -0.06976573914289474, 0.21368366479873657, 0.03470025211572647, -0.1750010997056961, 0.028787769377231598, -0.20660705864429474, 0.05203002318739891, -0.20070192217826843, -0.10510124266147614, 0.03295835480093956, 0.023592710494995117, -0.20450818538665771, 0.05841083452105522, 0.01949184760451317, 0.03748301416635513, -0.03867751359939575, 0.024702753871679306, 0.0005848622531630099, 0.155182883143425, 0.08594917505979538, 0.01972375437617302, 0.02469024807214737, -0.07880190014839172, -0.11940792202949524, -0.022036245092749596, -0.14588160812854767, 0.08124250173568726, 0.22232586145401, -0.027371404692530632, 0.00932901632040739, 0.046741459518671036, -0.0714503601193428, -0.03126220032572746, 0.035831648856401443, -0.08356815576553345, -0.11999662965536118, -0.17493495345115662, -0.04985695332288742, 0.06252637505531311, 0.07845713198184967, 0.015184902586042881, -0.010251878760755062, 0.020839205011725426, -0.42001858353614807, -0.06692042201757431, -0.07076753675937653, -0.022087762132287025, -0.07788703590631485, -0.03511904925107956, 0.04818522930145264, -0.1191302239894867, -0.03160621225833893, 0.18664605915546417, 0.021417811512947083, 0.023765476420521736, 0.04368531331419945, -0.1553371548652649, -0.022846443578600883, -0.02122989296913147, 0.04254048690199852, -0.04461490735411644, 0.015272563323378563, -0.04605964198708534, -0.1330203264951706, -0.1099075898528099, 0.1294945627450943, -0.06416992843151093, -0.09719312191009521, 0.044585518538951874, 0.06990483403205872, 0.25347110629081726, 0.13673283159732819, 0.05067317560315132, -0.034049831330776215, 0.08226653933525085, 0.08168679475784302, -0.10824128985404968, 0.16889995336532593, -0.055582884699106216, -0.11291094124317169], [0.11725742369890213, -0.243475541472435, 0.2898406386375427, 0.10509856790304184, -0.05360853672027588, -0.04378357157111168, 0.12560003995895386, 0.345133513212204, -0.3416503965854645, -0.039064113050699234, 0.02780602127313614, -0.0793767124414444, -0.11199323832988739, 0.4312744736671448, -0.21621286869049072, -0.07323695719242096, -0.17604541778564453, 0.07960346341133118, 0.22204235196113586, 0.18123987317085266, -0.05711052566766739, 0.15286996960639954, 0.2151082307100296, 0.19114412367343903, 0.21284322440624237, 0.14036092162132263, 0.14846943318843842, -0.050797201693058014, -0.08210434764623642, -0.5433909893035889, -0.0711812674999237, 0.054298095405101776, 0.20624332129955292, -0.2806702256202698, 0.07878607511520386, 0.15612652897834778, 0.7624878883361816, -0.07523228228092194, 0.06336268037557602, 0.07804403454065323, 0.028776230290532112, 0.3456578254699707, -0.010531272739171982, 0.16551239788532257, 0.1620815545320511, 0.0862409770488739, -0.5574935078620911, 0.01993083953857422, 0.035748306661844254, -0.01961544342339039, -0.31185516715049744, 0.057147033512592316, -0.21876762807369232, 0.2833908200263977, 0.2352510392665863, -0.1335732340812683, 0.36560067534446716, 0.8467256426811218, 0.17800140380859375, -0.6472774147987366, 0.10619571059942245, 0.015699569135904312, 0.8086950778961182, -0.07246208935976028, -0.19019152224063873, -0.2721211910247803, -0.06169659271836281, 0.0863279402256012, 0.4632582366466522, -0.1526726335287094, -0.02078797109425068, 0.04480863735079765, 0.25448906421661377, -0.2673629820346832, -0.19622310996055603, -0.39482271671295166, 0.10925932973623276, 0.17874601483345032, 0.28830549120903015, -0.002663206774741411, -0.06990719586610794, 0.07956017553806305, 0.21434445679187775, -0.6333069801330566, 0.023545628413558006, -0.24788013100624084, -0.10177864134311676, 0.09657087922096252, 0.0417327806353569, -0.23533518612384796, -0.07301480323076248, -0.14492052793502808, -0.5447477698326111, 0.47104310989379883, 0.06686890870332718, -0.13685724139213562], [-0.05822517350316048, 0.09324833750724792, -0.010092276148498058, -0.028230231255292892, 0.10518979281187057, 0.024270780384540558, 0.07630062848329544, -0.06857384741306305, -0.09195259213447571, 0.008555256761610508, -0.06129252910614014, 0.01228361390531063, 0.1525605171918869, -0.16187916696071625, -0.07658356428146362, 0.05614513158798218, 0.022090736776590347, 0.11209277808666229, 0.006640007719397545, 0.0051967063918709755, 0.02812121994793415, -0.06819523870944977, 0.059320662170648575, -0.08358162641525269, -0.07040993124246597, 0.0855548083782196, -0.08668938279151917, 0.13067185878753662, -0.00014745308726560324, -0.004962446633726358, -0.03856625780463219, 0.09112940728664398, 0.09678144752979279, 0.01988997310400009, 0.08254031836986542, 0.12288819253444672, -0.02415730617940426, 0.016399094834923744, -0.1820109784603119, 0.05307517200708389, 0.02748013101518154, 0.040651969611644745, 0.042541272938251495, -0.002522721653804183, -0.06319965422153473, 0.0313318632543087, 0.09044885635375977, -0.06788796186447144, -0.0002584921894595027, -0.056807927787303925, -0.09745055437088013, 0.05583581700921059, 0.00145918526686728, -0.047399088740348816, -0.06409841030836105, -0.07274164259433746, 0.09844350069761276, 0.0418601930141449, -0.051640547811985016, 0.18397216498851776, 0.007688573095947504, 0.054992109537124634, -0.028631875291466713, -0.026643982157111168, -0.13386735320091248, -0.019432293251156807, 0.013128289952874184, 0.01953309401869774, 0.0912543535232544, 0.10164625197649002, 0.07840583473443985, -0.10149909555912018, -0.005617417860776186, 0.09077218174934387, 0.030485359951853752, 0.021905330941081047, 0.018924791365861893, -0.06814391165971756, -0.10124969482421875, 0.028307639062404633, -0.06374356150627136, -0.09271480143070221, 0.012410293333232403, -0.1756831854581833, -0.012851285748183727, 0.07988844066858292, -0.014950599521398544, -0.05437881872057915, 0.0024734195321798325, -0.01756979525089264, -0.02750326693058014, 0.04413178563117981, 0.047722626477479935, 0.0036405383143574, -0.02662440948188305, 0.1200978085398674], [0.05020096153020859, -0.07415065169334412, 0.008462900295853615, 0.16102932393550873, -0.14679457247257233, -0.21931804716587067, -0.023446673527359962, 0.024060403928160667, 0.017827440053224564, 0.039373643696308136, -0.05194960534572601, 0.06400729715824127, 0.03126860037446022, 0.06398282200098038, 0.1777687966823578, 0.07829602807760239, 0.07346965372562408, 0.14030779898166656, -0.024250948801636696, -0.018147215247154236, -0.06830205023288727, -0.03800766170024872, -0.05091113969683647, -0.10615663230419159, 0.02824516035616398, 0.1454329639673233, -0.06982310116291046, -0.05770103633403778, -0.09751330316066742, 0.034880753606557846, 0.08466484397649765, 0.06317033618688583, -0.03885975480079651, 0.0008600378059782088, 0.12126510590314865, 0.2335030734539032, 0.11957317590713501, -0.09175098687410355, -0.005368121899664402, -0.09401237219572067, 0.10978556424379349, 0.08214189857244492, -0.022130543366074562, -0.000721657881513238, -0.007599005475640297, -0.029610591009259224, -0.1875476837158203, -0.13439327478408813, 0.087816022336483, -0.01907062903046608, -0.0817016214132309, -0.07512709498405457, -0.11435820907354355, 0.0888528898358345, 0.04401592165231705, -0.027910659089684486, 0.13667578995227814, -0.04029043763875961, 0.11990136653184891, -0.04242490604519844, 0.1248508170247078, -0.01586916856467724, 0.024746866896748543, -0.028482140973210335, 0.14218799769878387, -0.09003158658742905, -0.13041874766349792, 0.12946775555610657, 0.11356731504201889, -0.13209129869937897, 0.07892700284719467, 0.028215989470481873, 0.07547777146100998, 0.14978119730949402, -0.047244664281606674, -0.06454112380743027, -0.19340801239013672, 0.09875062108039856, 0.0057628280483186245, -0.3894634246826172, 0.1213807463645935, 0.26049450039863586, 0.08549802750349045, -0.13038769364356995, -0.10796139389276505, 0.12323787063360214, -0.14382685720920563, 0.1807926744222641, -0.05895747244358063, -0.06504756212234497, -0.06348773837089539, -0.1715637743473053, -0.12379413098096848, 0.1206984892487526, -0.03962889686226845, -0.0795658603310585], [0.1709657460451126, -0.32004502415657043, 0.34232097864151, -0.3498402237892151, -0.30901768803596497, 0.31131893396377563, -0.13323868811130524, 0.08023843169212341, 0.31038224697113037, 0.17420430481433868, 0.18029570579528809, -0.061585672199726105, -0.14189854264259338, -0.28369244933128357, -0.028403567150235176, -0.013269085437059402, -0.045047178864479065, 0.3798457384109497, 0.0860547348856926, -0.13571888208389282, -0.21729476749897003, -0.15364618599414825, 0.0884181559085846, 0.08455341309309006, 0.29263949394226074, 0.12314940243959427, 0.28255945444107056, 0.55633944272995, 0.3071509599685669, 0.06145589426159859, 0.18384744226932526, -0.4075424075126648, 0.2556278109550476, 0.31843534111976624, 0.07062407582998276, -0.05759931728243828, 0.08980385214090347, 0.13460032641887665, 0.06950793415307999, -0.21177905797958374, -0.3356078565120697, -0.3096763491630554, 0.06777025759220123, 0.11674078553915024, 0.19835348427295685, -0.17413103580474854, -0.18783360719680786, -0.007896073162555695, 0.4023200273513794, -0.16583557426929474, -0.11608795821666718, -0.14549092948436737, 0.15959835052490234, -0.1950705349445343, 0.21142064034938812, 0.3177315294742584, -0.06090783700346947, 0.11766386777162552, 0.2856448292732239, 0.022393139079213142, 0.09547919034957886, 0.04506533965468407, -0.1303497552871704, 0.2586519718170166, -0.031040748581290245, 0.2576678395271301, 0.005915065295994282, -0.24684618413448334, -0.18608029186725616, 0.2819899022579193, 